{"learner":{"attributes":{"scikit_learn":"{\"_estimator_type\": \"classifier\"}"},"feature_names":[],"feature_types":[],"gradient_booster":{"model":{"cats":{"enc":[],"feature_segments":[],"sorted_idx":[]},"gbtree_model_param":{"num_parallel_tree":"1","num_trees":"200"},"iteration_indptr":[0,1,2,3,4,5,6,7,8,9,10,11,12,13,14,15,16,17,18,19,20,21,22,23,24,25,26,27,28,29,30,31,32,33,34,35,36,37,38,39,40,41,42,43,44,45,46,47,48,49,50,51,52,53,54,55,56,57,58,59,60,61,62,63,64,65,66,67,68,69,70,71,72,73,74,75,76,77,78,79,80,81,82,83,84,85,86,87,88,89,90,91,92,93,94,95,96,97,98,99,100,101,102,103,104,105,106,107,108,109,110,111,112,113,114,115,116,117,118,119,120,121,122,123,124,125,126,127,128,129,130,131,132,133,134,135,136,137,138,139,140,141,142,143,144,145,146,147,148,149,150,151,152,153,154,155,156,157,158,159,160,161,162,163,164,165,166,167,168,169,170,171,172,173,174,175,176,177,178,179,180,181,182,183,184,185,186,187,188,189,190,191,192,193,194,195,196,197,198,199,200],"tree_info":[0,0,0,0,0,0,0,0,0,0,0,0,0,0,0,0,0,0,0,0,0,0,0,0,0,0,0,0,0,0,0,0,0,0,0,0,0,0,0,0,0,0,0,0,0,0,0,0,0,0,0,0,0,0,0,0,0,0,0,0,0,0,0,0,0,0,0,0,0,0,0,0,0,0,0,0,0,0,0,0,0,0,0,0,0,0,0,0,0,0,0,0,0,0,0,0,0,0,0,0,0,0,0,0,0,0,0,0,0,0,0,0,0,0,0,0,0,0,0,0,0,0,0,0,0,0,0,0,0,0,0,0,0,0,0,0,0,0,0,0,0,0,0,0,0,0,0,0,0,0,0,0,0,0,0,0,0,0,0,0,0,0,0,0,0,0,0,0,0,0,0,0,0,0,0,0,0,0,0,0,0,0,0,0,0,0,0,0,0,0,0,0,0,0,0,0,0,0,0,0],"trees":[{"base_weights":[-1.2727302E-2,-5.6289595E-1,1.6197474E0,-1.2855225E0,7.010954E-1,3.9814614E-2,1.5059148E-1,-1.3746558E-1,-7.8490876E-2,-1.3888124E-3,1.537954E0,-4.200032E-2,1.4047299E-2,-6.495369E-2,1.2859477E-1,5.9923533E-2,1.4010906E-1],"categories":[],"categories_nodes":[],"categories_segments":[],"categories_sizes":[],"default_left":[0,0,0,0,0,0,0,0,0,0,0,0,0,0,0,0,0],"id":0,"left_children":[1,3,5,7,9,-1,-1,-1,11,13,15,-1,-1,-1,-1,-1,-1],"loss_changes":[1.2475451E2,9.640239E1,8.671356E0,3.448786E1,2.2936993E1,0E0,0E0,0E0,2.3571324E0,3.1217924E1,7.705612E-1,0E0,0E0,0E0,0E0,0E0,0E0],"parents":[2147483647,0,0,1,1,2,2,3,3,4,4,8,8,9,9,10,10],"right_children":[2,4,6,8,10,-1,-1,-1,12,14,16,-1,-1,-1,-1,-1,-1],"split_conditions":[1E0,3.2530016E-1,3.8244333E-2,9.580108E-1,7.00192E-1,3.9814614E-2,1.5059148E-1,-1.3746558E-1,1.5278918E-1,9.580108E-1,1.5278918E-1,-4.200032E-2,1.4047299E-2,-6.495369E-2,1.2859477E-1,5.9923533E-2,1.4010906E-1],"split_indices":[0,2,2,3,2,0,0,0,0,3,0,0,0,0,0,0,0],"split_type":[0,0,0,0,0,0,0,0,0,0,0,0,0,0,0,0,0],"sum_hessian":[1.3599867E2,1.02499E2,3.3499672E1,6.524936E1,3.7249638E1,7.249929E0,2.6249743E1,4.7499535E1,1.7749826E1,2.0999794E1,1.6249842E1,5.9999413E0,1.1749886E1,1.4499858E1,6.4999366E0,4.9999514E0,1.124989E1],"tree_param":{"num_deleted":"0","num_feature":"6","num_nodes":"17","size_leaf_vector":"1"}},{"base_weights":[3.1974956E-2,-4.4691658E-1,1.3784274E0,-1.1387604E0,6.4621395E-1,2.7677554E-1,1.3963543E-1,-1.3966854E0,4.9667135E-1,-9.0968534E-2,1.4045088E-1,-1.1543742E-1,1.21727176E-1,-1.4395809E-1,-3.3580896E-2,-3.964747E-3,1.0326107E-1,-6.698724E-2,8.9264326E-2],"categories":[],"categories_nodes":[],"categories_segments":[],"categories_sizes":[],"default_left":[0,0,0,0,0,0,0,0,0,0,0,0,0,0,0,0,0,0,0],"id":1,"left_children":[1,3,5,7,9,11,-1,13,15,17,-1,-1,-1,-1,-1,-1,-1,-1,-1],"loss_changes":[8.7455734E1,7.675177E1,1.34637985E1,2.7205833E1,3.2829926E1,2.6303947E1,0E0,1.9831528E1,4.3298E0,2.4062782E1,0E0,0E0,0E0,0E0,0E0,0E0,0E0,0E0,0E0],"parents":[2147483647,0,0,1,1,2,2,3,3,4,4,5,5,7,7,8,8,9,9],"right_children":[2,4,6,8,10,12,-1,14,16,18,-1,-1,-1,-1,-1,-1,-1,-1,-1],"split_conditions":[1E0,3.2530016E-1,3.8244333E-2,4.3848255E-1,3.1894228E-1,1.196051E-1,1.3963543E-1,9.580108E-1,1.5278918E-1,7.00192E-1,1.4045088E-1,-1.1543742E-1,1.21727176E-1,-1.4395809E-1,-3.3580896E-2,-3.964747E-3,1.0326107E-1,-6.698724E-2,8.9264326E-2],"split_indices":[0,2,2,1,1,1,0,3,0,2,0,0,0,0,0,0,0,0,0],"split_type":[0,0,0,0,0,0,0,0,0,0,0,0,0,0,0,0,0,0,0],"sum_hessian":[1.325538E2,9.846182E1,3.4091976E1,6.031637E1,3.814545E1,9.245094E0,2.4846884E1,5.234166E1,7.9747105E0,2.3690556E1,1.4454895E1,3.7480114E0,5.497083E0,3.6094414E1,1.6247244E1,5.483346E0,2.4913645E0,1.49724E1,8.718157E0],"tree_param":{"num_deleted":"0","num_feature":"6","num_nodes":"19","size_leaf_vector":"1"}},{"base_weights":[-1.3523472E-2,-4.7290018E-1,1.3418338E0,-9.9661297E-1,5.579036E-1,3.2597885E-1,1.3133702E-1,-1.3012446E-1,-6.0483205E-1,-1.1254952E0,1.1365054E0,-1.0407936E-1,1.1346154E-1,-7.2565965E-2,2.9405221E-2,-1.1328868E-1,-4.3445025E-3,6.103976E-2,1.3182473E-1],"categories":[],"categories_nodes":[],"categories_segments":[],"categories_sizes":[],"default_left":[0,0,0,0,0,0,0,0,0,0,0,0,0,0,0,0,0,0,0],"id":2,"left_children":[1,3,5,7,9,11,-1,-1,13,15,17,-1,-1,-1,-1,-1,-1,-1,-1],"loss_changes":[8.649851E1,5.696019E1,9.708855E0,1.5451195E1,3.688336E1,2.0478407E1,0E0,0E0,1.3876434E1,2.8168182E0,3.1257782E0,0E0,0E0,0E0,0E0,0E0,0E0,0E0,0E0],"parents":[2147483647,0,0,1,1,2,2,3,3,4,4,5,5,8,8,9,9,10,10],"right_children":[2,4,6,8,10,12,-1,-1,14,16,18,-1,-1,-1,-1,-1,-1,-1,-1],"split_conditions":[1E0,3.1926692E-1,1.9160216E0,3.8533247E0,1.9160216E0,1.196051E-1,1.3133702E-1,-1.3012446E-1,9.580108E-1,6.7133397E-1,9.580108E-1,-1.0407936E-1,1.1346154E-1,-7.2565965E-2,2.9405221E-2,-1.1328868E-1,-4.3445025E-3,6.103976E-2,1.3182473E-1],"split_indices":[0,1,5,5,5,1,0,0,3,1,3,0,0,0,0,0,0,0,0],"split_type":[0,0,0,0,0,0,0,0,0,0,0,0,0,0,0,0,0,0,0],"sum_hessian":[1.3603757E2,1.0238591E2,3.3651653E1,6.798967E1,3.439624E1,8.459313E0,2.519234E1,2.4160044E1,4.3829624E1,8.391415E0,2.6004826E1,3.246093E0,5.2132206E0,3.359207E1,1.0237553E1,6.147303E0,2.2441115E0,1.7300644E1,8.704181E0],"tree_param":{"num_deleted":"0","num_feature":"6","num_nodes":"19","size_leaf_vector":"1"}},{"base_weights":[-3.840233E-4,-4.2879498E-1,1.2311239E0,-9.250823E-1,4.1408107E-1,2.3665965E-1,1.2439705E-1,-1.22134194E-1,-5.622507E-1,-1.1462256E0,9.9353254E-1,-1.0342802E-1,1.0867488E-1,-6.937499E-2,3.768277E-2,-1.1197431E-1,-4.136687E-3,4.3207865E-2,1.2696695E-1],"categories":[],"categories_nodes":[],"categories_segments":[],"categories_sizes":[],"default_left":[0,0,0,0,0,0,0,0,0,0,0,0,0,0,0,0,0,0,0],"id":3,"left_children":[1,3,5,7,9,11,-1,-1,13,15,17,-1,-1,-1,-1,-1,-1,-1,-1],"loss_changes":[7.301908E1,4.3649918E1,1.076564E1,1.2751518E1,3.702446E1,2.0853106E1,0E0,0E0,1.4262646E1,2.862216E0,6.3996353E0,0E0,0E0,0E0,0E0,0E0,0E0,0E0,0E0],"parents":[2147483647,0,0,1,1,2,2,3,3,4,4,5,5,8,8,9,9,10,10],"right_children":[2,4,6,8,10,12,-1,-1,14,16,18,-1,-1,-1,-1,-1,-1,-1,-1],"split_conditions":[1E0,3.1894228E-1,1.9160216E0,3.8533247E0,1.9160216E0,1.196051E-1,1.2439705E-1,-1.22134194E-1,9.580108E-1,6.7133397E-1,9.580108E-1,-1.0342802E-1,1.0867488E-1,-6.937499E-2,3.768277E-2,-1.1197431E-1,-4.136687E-3,4.3207865E-2,1.2696695E-1],"split_indices":[0,1,5,5,5,1,0,0,3,1,3,0,0,0,0,0,0,0,0],"split_type":[0,0,0,0,0,0,0,0,0,0,0,0,0,0,0,0,0,0,0],"sum_hessian":[1.35552E2,1.01352806E2,3.41992E1,6.377455E1,3.757826E1,9.114586E0,2.5084612E1,2.207908E1,4.169547E1,9.732228E0,2.784603E1,3.7219353E0,5.392651E0,3.245535E1,9.240121E0,7.4885535E0,2.2436755E0,1.750603E1,1.0339999E1],"tree_param":{"num_deleted":"0","num_feature":"6","num_nodes":"19","size_leaf_vector":"1"}},{"base_weights":[-2.7876677E-2,-4.6092167E-1,1.2115891E0,-8.045111E-1,1.2593644E0,2.845456E-1,1.1856333E-1,-1.2117454E0,2.693174E-1,1.9706706E-2,1.2661575E-1,-9.394639E-2,1.02247745E-1,-1.1238073E-1,5.113062E-2,-3.5912596E-2,1.1630836E-1],"categories":[],"categories_nodes":[],"categories_segments":[],"categories_sizes":[],"default_left":[0,0,0,0,0,0,0,0,0,0,0,0,0,0,0,0,0],"id":4,"left_children":[1,3,5,7,9,11,-1,13,15,-1,-1,-1,-1,-1,-1,-1,-1],"loss_changes":[7.166066E1,6.001113E1,7.8541985E0,3.7103386E1,4.8082314E0,1.6385193E1,0E0,2.3175781E1,2.160173E1,0E0,0E0,0E0,0E0,0E0,0E0,0E0,0E0],"parents":[2147483647,0,0,1,1,2,2,3,3,4,4,5,5,7,7,8,8],"right_children":[2,4,6,8,10,12,-1,14,16,-1,-1,-1,-1,-1,-1,-1,-1],"split_conditions":[1E0,7.00192E-1,3.8244333E-2,9.580108E-1,1.5278918E-1,1.196051E-1,1.1856333E-1,6.7133397E-1,3.1894228E-1,1.9706706E-2,1.2661575E-1,-9.394639E-2,1.02247745E-1,-1.1238073E-1,5.113062E-2,-3.5912596E-2,1.1630836E-1],"split_indices":[0,2,2,3,0,1,0,1,1,0,0,0,0,0,0,0,0],"split_type":[0,0,0,0,0,0,0,0,0,0,0,0,0,0,0,0,0],"sum_hessian":[1.3058904E2,9.7535065E1,3.3053963E1,8.201167E1,1.5523395E1,8.243892E0,2.481007E1,5.938951E1,2.2622162E1,4.4701314E0,1.1053264E1,3.188499E0,5.0553923E0,5.4157425E1,5.2320848E0,1.4610463E1,8.011698E0],"tree_param":{"num_deleted":"0","num_feature":"6","num_nodes":"17","size_leaf_vector":"1"}},{"base_weights":[2.938933E-2,-3.362893E-1,1.1276867E0,-7.73684E-1,3.8362694E-1,2.18811E-1,1.1326392E-1,-1.10435605E-1,-4.3815923E-1,-9.5008856E-1,8.5144985E-1,-9.2033416E-2,9.765891E-2,-5.6470625E-2,3.3239722E-2,-1.0028526E-1,-0E0,4.1276902E-2,1.12479724E-1],"categories":[],"categories_nodes":[],"categories_segments":[],"categories_sizes":[],"default_left":[0,0,0,0,0,0,0,0,0,0,0,0,0,0,0,0,0,0,0],"id":5,"left_children":[1,3,5,7,9,11,-1,-1,13,15,17,-1,-1,-1,-1,-1,-1,-1,-1],"loss_changes":[5.321845E1,3.1748272E1,8.04155E0,1.1603401E1,2.5188374E1,1.5594686E1,0E0,0E0,1.0170555E1,3.1884575E0,4.171671E0,0E0,0E0,0E0,0E0,0E0,0E0,0E0,0E0],"parents":[2147483647,0,0,1,1,2,2,3,3,4,4,5,5,8,8,9,9,10,10],"right_children":[2,4,6,8,10,12,-1,-1,14,16,18,-1,-1,-1,-1,-1,-1,-1,-1],"split_conditions":[1E0,3.1894228E-1,1.9160216E0,3.8533247E0,1.9160216E0,1.196051E-1,1.1326392E-1,-1.10435605E-1,9.580108E-1,6.7133397E-1,9.580108E-1,-9.2033416E-2,9.765891E-2,-5.6470625E-2,3.3239722E-2,-1.0028526E-1,-0E0,4.1276902E-2,1.12479724E-1],"split_indices":[0,1,5,5,5,1,0,0,3,1,3,0,0,0,0,0,0,0,0],"split_type":[0,0,0,0,0,0,0,0,0,0,0,0,0,0,0,0,0,0,0],"sum_hessian":[1.2939478E2,9.778641E1,3.1608366E1,6.0845676E1,3.6940727E1,8.326855E0,2.3281513E1,1.9896141E1,4.0949535E1,9.135704E0,2.7805025E1,3.3823817E0,4.9444723E0,3.1459885E1,9.489651E0,6.638443E0,2.4972606E0,1.9240751E1,8.564274E0],"tree_param":{"num_deleted":"0","num_feature":"6","num_nodes":"19","size_leaf_vector":"1"}},{"base_weights":[7.231878E-3,-3.4352282E-1,1.067826E0,-9.6806026E-1,6.428004E-1,1.3819739E-1,1.0873004E-1,-1.094833E0,9.197197E-2,4.754409E-2,1.1546303E-1,-8.812227E-2,9.115544E-2,-1.14832744E-1,-1.7788947E-2,-5.471068E-2,8.925646E-2],"categories":[],"categories_nodes":[],"categories_segments":[],"categories_sizes":[],"default_left":[0,0,0,0,0,0,0,0,0,0,0,0,0,0,0,0,0],"id":6,"left_children":[1,3,5,7,9,11,-1,13,-1,15,-1,-1,-1,-1,-1,-1,-1],"loss_changes":[4.656617E1,5.8790825E1,7.9982796E0,1.7490768E1,1.748982E1,1.3279762E1,0E0,1.5896606E1,0E0,1.91394E1,0E0,0E0,0E0,0E0,0E0,0E0,0E0],"parents":[2147483647,0,0,1,1,2,2,3,3,4,4,5,5,7,7,9,9],"right_children":[2,4,6,8,10,12,-1,14,-1,16,-1,-1,-1,-1,-1,-1,-1],"split_conditions":[1E0,3.2530016E-1,3.8244333E-2,1E0,2.090457E-1,1.196051E-1,1.0873004E-1,9.580108E-1,9.197197E-2,7.00192E-1,1.1546303E-1,-8.812227E-2,9.115544E-2,-1.14832744E-1,-1.7788947E-2,-5.471068E-2,8.925646E-2],"split_indices":[0,2,2,1,1,1,0,3,0,2,0,0,0,0,0,0,0],"split_type":[0,0,0,0,0,0,0,0,0,0,0,0,0,0,0,0,0],"sum_hessian":[1.2200127E2,9.237223E1,2.962904E1,5.663821E1,3.5734016E1,7.678725E0,2.1950315E1,5.4167324E1,2.470888E0,2.147721E1,1.4256805E1,3.3190362E0,4.3596883E0,3.8180714E1,1.598661E1,1.3012718E1,8.464491E0],"tree_param":{"num_deleted":"0","num_feature":"6","num_nodes":"17","size_leaf_vector":"1"}},{"base_weights":[-5.900886E-3,-3.2324758E-1,1.0026821E0,-8.9026546E-1,6.0325795E-1,1.5233837E-1,1.0459853E-1,-1.0978909E0,4.500598E-1,1.134707E-1,1.13478184E-1,-8.6512715E-2,8.997675E-2,-1.0832607E-1,-5.4519475E-2,-1.5471459E-2,6.240816E-2,-4.3006014E-2,8.2110934E-2],"categories":[],"categories_nodes":[],"categories_segments":[],"categories_sizes":[],"default_left":[0,0,0,0,0,0,0,0,0,0,0,0,0,0,0,0,0,0,0],"id":7,"left_children":[1,3,5,7,9,11,-1,13,15,17,-1,-1,-1,-1,-1,-1,-1,-1,-1],"loss_changes":[3.996883E1,5.084895E1,7.2957954E0,1.7428558E1,1.4367406E1,1.3423041E1,0E0,3.9829254E0,2.1986294E0,1.5617881E1,0E0,0E0,0E0,0E0,0E0,0E0,0E0,0E0,0E0],"parents":[2147483647,0,0,1,1,2,2,3,3,4,4,5,5,7,7,8,8,9,9],"right_children":[2,4,6,8,10,12,-1,14,16,18,-1,-1,-1,-1,-1,-1,-1,-1,-1],"split_conditions":[1E0,3.2530016E-1,3.8244333E-2,4.3848255E-1,3.1894228E-1,1.196051E-1,1.0459853E-1,1.6494305E-1,3.8244333E-2,7.00192E-1,1.13478184E-1,-8.6512715E-2,8.997675E-2,-1.0832607E-1,-5.4519475E-2,-1.5471459E-2,6.240816E-2,-4.3006014E-2,8.2110934E-2],"split_indices":[0,2,2,1,1,1,0,1,2,2,0,0,0,0,0,0,0,0,0],"split_type":[0,0,0,0,0,0,0,0,0,0,0,0,0,0,0,0,0,0,0],"sum_hessian":[1.2206843E2,9.370342E1,2.8365011E1,5.8232162E1,3.547126E1,8.164659E0,2.0200354E1,5.0721054E1,7.5111084E0,2.330248E1,1.2168777E1,3.4791968E0,4.6854615E0,2.9161623E1,2.155943E1,2.6543078E0,4.8568006E0,1.3898177E1,9.404304E0],"tree_param":{"num_deleted":"0","num_feature":"6","num_nodes":"19","size_leaf_vector":"1"}},{"base_weights":[6.9502136E-3,-3.0034417E-1,1.0514691E0,-7.0693415E-1,3.818951E-1,2.2699474E-1,1.0166807E-1,-1.00318916E-1,-3.7459695E-1,-9.239559E-1,8.3982396E-1,-7.429264E-2,8.297427E-2,-5.301021E-2,3.7591007E-2,-9.1473915E-2,-4.581016E-3,4.2336144E-2,1.06039055E-1],"categories":[],"categories_nodes":[],"categories_segments":[],"categories_sizes":[],"default_left":[0,0,0,0,0,0,0,0,0,0,0,0,0,0,0,0,0,0,0],"id":8,"left_children":[1,3,5,7,9,11,-1,-1,13,15,17,-1,-1,-1,-1,-1,-1,-1,-1],"loss_changes":[4.0008606E1,2.7090357E1,4.545908E0,1.0190382E1,2.3138525E1,8.8344145E0,0E0,0E0,1.0237494E1,1.7222433E0,2.9953938E0,0E0,0E0,0E0,0E0,0E0,0E0,0E0,0E0],"parents":[2147483647,0,0,1,1,2,2,3,3,4,4,5,5,8,8,9,9,10,10],"right_children":[2,4,6,8,10,12,-1,-1,14,16,18,-1,-1,-1,-1,-1,-1,-1,-1],"split_conditions":[1E0,3.1894228E-1,1.9160216E0,3.8533247E0,1.9160216E0,1.196051E-1,1.0166807E-1,-1.00318916E-1,9.580108E-1,6.7133397E-1,9.580108E-1,-7.429264E-2,8.297427E-2,-5.301021E-2,3.7591007E-2,-9.1473915E-2,-4.581016E-3,4.2336144E-2,1.06039055E-1],"split_indices":[0,1,5,5,5,1,0,0,3,1,3,0,0,0,0,0,0,0,0],"split_type":[0,0,0,0,0,0,0,0,0,0,0,0,0,0,0,0,0,0,0],"sum_hessian":[1.21437355E2,9.458398E1,2.685338E1,5.9322304E1,3.526167E1,6.380869E0,2.0472511E1,2.0733171E1,3.8589134E1,8.701935E0,2.6559736E1,2.4884899E0,3.8923788E0,2.9103989E1,9.485144E0,6.4694004E0,2.232534E0,1.823642E1,8.323317E0],"tree_param":{"num_deleted":"0","num_feature":"6","num_nodes":"19","size_leaf_vector":"1"}},{"base_weights":[-4.2146104E-3,-3.8586366E-1,7.129161E-1,-8.543423E-1,8.750003E-1,2.6100886E-1,1.0853197E-1,-9.7847104E-1,8.6024486E-2,1.5495262E-1,9.5167205E-2,-1.888867E-1,9.683482E-1,-1.07183546E-1,-1.3319847E-2,-7.650182E-2,8.137466E-2,1.0263792E-1,-7.312748E-2,1.5732104E-2,1.0745867E-1],"categories":[],"categories_nodes":[],"categories_segments":[],"categories_sizes":[],"default_left":[0,0,0,0,0,0,0,0,0,0,0,0,0,0,0,0,0,0,0,0,0],"id":9,"left_children":[1,3,5,7,9,11,-1,13,-1,15,-1,17,19,-1,-1,-1,-1,-1,-1,-1,-1],"loss_changes":[3.2114902E1,4.6449314E1,1.114999E1,1.516608E1,4.452965E0,8.584087E0,0E0,1.5407928E1,0E0,9.465697E0,0E0,1.9846539E1,2.4549236E0,0E0,0E0,0E0,0E0,0E0,0E0,0E0,0E0],"parents":[2147483647,0,0,1,1,2,2,3,3,4,4,5,5,7,7,9,9,11,11,12,12],"right_children":[2,4,6,8,10,12,-1,14,-1,16,-1,18,20,-1,-1,-1,-1,-1,-1,-1,-1],"split_conditions":[3.2530016E-1,1E0,3.1894228E-1,1E0,3.8244333E-2,7.00192E-1,1.0853197E-1,9.580108E-1,8.6024486E-2,1.196051E-1,9.5167205E-2,4.0341502E-1,1.5278918E-1,-1.07183546E-1,-1.3319847E-2,-7.650182E-2,8.137466E-2,1.0263792E-1,-7.312748E-2,1.5732104E-2,1.0745867E-1],"split_indices":[2,0,1,1,2,2,0,3,0,1,0,2,0,0,0,0,0,0,0,0,0],"split_type":[0,0,0,0,0,0,0,0,0,0,0,0,0,0,0,0,0,0,0,0,0],"sum_hessian":[1.144513E2,7.524114E1,3.921016E1,5.526876E1,1.9972378E1,2.4367485E1,1.4842676E1,5.2671753E1,2.597008E0,6.8501472E0,1.312223E1,1.5479795E1,8.88769E0,3.569116E1,1.6980595E1,2.870773E0,3.9793744E0,4.6832433E0,1.0796552E1,3.7408297E0,5.1468596E0],"tree_param":{"num_deleted":"0","num_feature":"6","num_nodes":"21","size_leaf_vector":"1"}},{"base_weights":[9.285912E-3,-2.7942935E-1,9.2614686E-1,-8.261526E-1,6.2292033E-1,1.4454263E-2,9.6294135E-2,-1.1236439E0,-9.2391916E-2,1.6721843E-1,9.521401E-2,-9.724098E-2,-3.7731998E-2,-2.2432024E-2,4.92139E-3,-3.5604324E-2,1.05147816E-1],"categories":[],"categories_nodes":[],"categories_segments":[],"categories_sizes":[],"default_left":[0,0,0,0,0,0,0,0,0,0,0,0,0,0,0,0,0],"id":10,"left_children":[1,3,5,7,9,-1,-1,11,13,15,-1,-1,-1,-1,-1,-1,-1],"loss_changes":[3.0598417E1,4.404672E1,5.266844E0,1.1796448E1,8.320113E0,0E0,0E0,1.3147697E0,5.595678E-1,1.5448763E1,0E0,0E0,0E0,0E0,0E0,0E0,0E0],"parents":[2147483647,0,0,1,1,2,2,3,3,4,4,7,7,8,8,9,9],"right_children":[2,4,6,8,10,-1,-1,12,14,16,-1,-1,-1,-1,-1,-1,-1],"split_conditions":[1E0,3.2530016E-1,3.8244333E-2,9.580108E-1,7.00192E-1,1.4454263E-2,9.6294135E-2,2.7076882E-1,1.1547425E-1,9.580108E-1,9.521401E-2,-9.724098E-2,-3.7731998E-2,-2.2432024E-2,4.92139E-3,-3.5604324E-2,1.05147816E-1],"split_indices":[0,2,2,3,2,0,0,2,2,3,0,0,0,0,0,0,0],"split_type":[0,0,0,0,0,0,0,0,0,0,0,0,0,0,0,0,0],"sum_hessian":[1.1238069E2,8.617756E1,2.6203133E1,5.381136E1,3.2366196E1,7.878277E0,1.8324856E1,3.7624012E1,1.6187346E1,1.9122599E1,1.3243598E1,3.1706606E1,5.917407E0,7.0240483E0,9.163298E0,1.3009653E1,6.1129465E0],"tree_param":{"num_deleted":"0","num_feature":"6","num_nodes":"17","size_leaf_vector":"1"}},{"base_weights":[3.6897638E-3,-2.7144963E-1,9.5056176E-1,-6.859057E-1,4.0416336E-1,2.8992596E-1,9.383334E-2,-9.08154E-2,-4.4986975E-1,-6.3518755E-2,7.4056274E-1,-7.209457E-2,8.247417E-2,-5.4177664E-2,1.5379655E-2,3.3653457E-2,1.0248493E-1],"categories":[],"categories_nodes":[],"categories_segments":[],"categories_sizes":[],"default_left":[0,0,0,0,0,0,0,0,0,0,0,0,0,0,0,0,0],"id":11,"left_children":[1,3,5,7,9,11,-1,-1,13,-1,15,-1,-1,-1,-1,-1,-1],"loss_changes":[3.0357874E1,2.56514E1,3.2008553E0,5.0611115E0,1.501573E1,9.101293E0,0E0,0E0,6.029731E0,0E0,3.902669E0,0E0,0E0,0E0,0E0,0E0,0E0],"parents":[2147483647,0,0,1,1,2,2,3,3,4,4,5,5,8,8,10,10],"right_children":[2,4,6,8,10,12,-1,-1,14,-1,16,-1,-1,-1,-1,-1,-1],"split_conditions":[1E0,3.1894228E-1,1.9160216E0,3.8533247E0,1.9160216E0,1.196051E-1,9.383334E-2,-9.08154E-2,9.580108E-1,-6.3518755E-2,9.580108E-1,-7.209457E-2,8.247417E-2,-5.4177664E-2,1.5379655E-2,3.3653457E-2,1.0248493E-1],"split_indices":[0,1,5,5,5,1,0,0,3,0,3,0,0,0,0,0,0],"split_type":[0,0,0,0,0,0,0,0,0,0,0,0,0,0,0,0,0],"sum_hessian":[1.13280876E2,8.85226E1,2.4758278E1,5.4942924E1,3.3579678E1,7.2181373E0,1.754014E1,1.6809261E1,3.813366E1,6.848798E0,2.673088E1,2.5921812E0,4.625956E0,2.8216791E1,9.91687E0,1.8584246E1,8.146634E0],"tree_param":{"num_deleted":"0","num_feature":"6","num_nodes":"17","size_leaf_vector":"1"}},{"base_weights":[-3.9683846E-3,-2.604063E-1,8.92465E-1,-7.6450384E-1,5.126694E-1,1.671713E-2,9.1349535E-2,-8.840742E-2,2.3697916E-2,1.4359249E-1,9.717626E-1,-2.8839445E-2,2.0515837E-2,-2.6458737E-2,9.792643E-2,1.0931E-2,1.0390265E-1],"categories":[],"categories_nodes":[],"categories_segments":[],"categories_sizes":[],"default_left":[0,0,0,0,0,0,0,0,0,0,0,0,0,0,0,0,0],"id":12,"left_children":[1,3,5,7,9,-1,-1,-1,11,13,15,-1,-1,-1,-1,-1,-1],"loss_changes":[2.534136E1,3.412759E1,3.6828728E0,1.4304579E1,5.569496E0,0E0,0E0,0E0,1.6745201E0,1.1536995E1,3.7172928E0,0E0,0E0,0E0,0E0,0E0,0E0],"parents":[2147483647,0,0,1,1,2,2,3,3,4,4,8,8,9,9,10,10],"right_children":[2,4,6,8,10,-1,-1,-1,12,14,16,-1,-1,-1,-1,-1,-1],"split_conditions":[1E0,3.2530016E-1,3.8244333E-2,9.580108E-1,7.00192E-1,1.671713E-2,9.1349535E-2,-8.840742E-2,1.5278918E-1,9.580108E-1,1.5278918E-1,-2.8839445E-2,2.0515837E-2,-2.6458737E-2,9.792643E-2,1.0931E-2,1.0390265E-1],"split_indices":[0,2,2,3,2,0,0,0,0,3,0,0,0,0,0,0,0],"split_type":[0,0,0,0,0,0,0,0,0,0,0,0,0,0,0,0,0],"sum_hessian":[1.0749606E2,8.449954E1,2.2996517E1,5.123612E1,3.3263424E1,6.9921145E0,1.6004402E1,3.5444183E1,1.5791937E1,1.9651808E1,1.3611616E1,5.485062E0,1.0306874E1,1.4315643E1,5.336165E0,4.514723E0,9.096893E0],"tree_param":{"num_deleted":"0","num_feature":"6","num_nodes":"17","size_leaf_vector":"1"}},{"base_weights":[3.9147E-2,-5.7846093E-1,4.0870383E-1,-9.349203E-1,-2.2547431E-2,7.682019E-2,1.0173523E0,-9.274929E-2,-1.6633815E-1,-3.618585E-1,8.765731E-2,-3.3475703E-1,9.069178E-1,4.8134342E-1,1.0203121E-1,-4.528865E-2,1.0384707E-2,-6.826814E-2,3.157647E-2,-5.499466E-2,3.9038233E-2,-0E0,9.868661E-2,5.075242E-3,7.575041E-2],"categories":[],"categories_nodes":[],"categories_segments":[],"categories_sizes":[],"default_left":[0,0,0,0,0,0,0,0,0,0,0,0,0,0,0,0,0,0,0,0,0,0,0,0,0],"id":13,"left_children":[1,3,5,7,9,11,13,-1,15,17,-1,19,21,23,-1,-1,-1,-1,-1,-1,-1,-1,-1,-1,-1],"loss_changes":[2.4909378E1,7.9620085E0,1.3576952E1,3.8436184E0,7.197872E0,1.6211489E1,2.206913E0,0E0,1.0347687E0,6.015686E0,0E0,9.731098E0,4.688364E0,1.812089E0,0E0,0E0,0E0,0E0,0E0,0E0,0E0,0E0,0E0,0E0,0E0],"parents":[2147483647,0,0,1,1,2,2,3,3,4,4,5,5,6,6,8,8,9,9,11,11,12,12,13,13],"right_children":[2,4,6,8,10,12,14,-1,16,18,-1,20,22,24,-1,-1,-1,-1,-1,-1,-1,-1,-1,-1,-1],"split_conditions":[9.722215E-2,3.2530016E-1,3.2530016E-1,8.998534E-2,9.580108E-1,9.580108E-1,3.1894228E-1,-9.274929E-2,6.636692E-2,7.00192E-1,8.765731E-2,4.3848255E-1,5.178125E1,7.00192E-1,1.0203121E-1,-4.528865E-2,1.0384707E-2,-6.826814E-2,3.157647E-2,-5.499466E-2,3.9038233E-2,-0E0,9.868661E-2,5.075242E-3,7.575041E-2],"split_indices":[1,2,2,1,3,3,1,0,2,2,0,1,4,2,0,0,0,0,0,0,0,0,0,0,0],"split_type":[0,0,0,0,0,0,0,0,0,0,0,0,0,0,0,0,0,0,0,0,0,0,0,0,0],"sum_hessian":[1.0615681E2,3.9322327E1,6.683448E1,2.3226582E1,1.6095745E1,4.445027E1,2.2384207E1,1.7285877E1,5.9407043E0,1.3195821E1,2.899924E0,3.0234224E1,1.4216047E1,8.796765E0,1.35874405E1,2.0898757E0,3.8508284E0,7.963019E0,5.2328024E0,2.1420338E1,8.813887E0,4.140503E0,1.0075544E1,5.6468863E0,3.1498792E0],"tree_param":{"num_deleted":"0","num_feature":"6","num_nodes":"25","size_leaf_vector":"1"}},{"base_weights":[7.415228E-2,-5.009321E-1,4.8556697E-1,-7.2745633E-1,6.821244E-1,-2.249874E-1,6.871871E-1,-9.695246E-1,-1.8578732E-1,8.374592E-2,5.4037664E-3,-7.4753314E-2,1.2730302E-1,2.1239834E-1,8.5925674E-1,-9.539059E-2,-2.7933387E-2,-5.7647694E-2,8.752428E-2,6.0366552E-2,-4.2608846E-2,-4.0952697E-2,5.0307512E-2,4.7674466E-2,9.981011E-2],"categories":[],"categories_nodes":[],"categories_segments":[],"categories_sizes":[],"default_left":[0,0,0,0,0,0,0,0,0,0,0,0,0,0,0,0,0,0,0,0,0,0,0,0,0],"id":14,"left_children":[1,3,5,7,9,11,13,15,17,-1,-1,-1,19,21,23,-1,-1,-1,-1,-1,-1,-1,-1,-1,-1],"loss_changes":[2.527197E1,1.2685913E1,9.194123E0,4.620661E0,1.5445087E0,3.952151E0,3.6188736E0,2.8027878E0,1.0574498E1,0E0,0E0,0E0,5.2196517E0,5.070548E0,2.3092651E0,0E0,0E0,0E0,0E0,0E0,0E0,0E0,0E0,0E0,0E0],"parents":[2147483647,0,0,1,1,2,2,3,3,4,4,5,5,6,6,7,7,8,8,12,12,13,13,14,14],"right_children":[2,4,6,8,10,12,14,16,18,-1,-1,-1,20,22,24,-1,-1,-1,-1,-1,-1,-1,-1,-1,-1],"split_conditions":[1.01361044E-1,7.00192E-1,3.8244333E-2,9.580108E-1,7.9163426E-1,5.178125E1,5.178125E1,8.998534E-2,2.9884174E-1,8.374592E-2,5.4037664E-3,-7.4753314E-2,6.15625E1,2.7076882E-1,9.580108E-1,-9.539059E-2,-2.7933387E-2,-5.7647694E-2,8.752428E-2,6.0366552E-2,-4.2608846E-2,-4.0952697E-2,5.0307512E-2,4.7674466E-2,9.981011E-2],"split_indices":[1,2,2,3,2,4,4,1,2,0,0,0,4,2,3,0,0,0,0,0,0,0,0,0,0],"split_type":[0,0,0,0,0,0,0,0,0,0,0,0,0,0,0,0,0,0,0,0,0,0,0,0,0],"sum_hessian":[1.037783E2,4.3042755E1,6.073554E1,3.668141E1,6.361344E0,1.3276465E1,4.7459072E1,2.4405373E1,1.2276039E1,3.2280633E0,3.1332808E0,3.6770375E0,9.599428E0,1.3670642E1,3.378843E1,1.6818977E1,7.5863967E0,9.175459E0,3.1005807E0,4.8887715E0,4.710656E0,4.777446E0,8.893196E0,2.2554785E1,1.1233646E1],"tree_param":{"num_deleted":"0","num_feature":"6","num_nodes":"25","size_leaf_vector":"1"}},{"base_weights":[3.3144138E-3,-2.3703496E-1,8.64765E-1,-5.9708166E-1,3.8256037E-1,2.1284278E-1,8.805831E-2,-8.8114806E-2,-3.3398733E-1,-5.7715006E-2,7.243972E-1,-6.851922E-2,7.620088E-2,-4.3348536E-2,1.8070966E-2,3.68387E-2,9.071958E-2],"categories":[],"categories_nodes":[],"categories_segments":[],"categories_sizes":[],"default_left":[0,0,0,0,0,0,0,0,0,0,0,0,0,0,0,0,0],"id":15,"left_children":[1,3,5,7,9,11,-1,-1,13,-1,15,-1,-1,-1,-1,-1,-1],"loss_changes":[2.1312574E1,1.824841E1,2.974989E0,6.1240387E0,1.2210176E1,7.5181503E0,0E0,0E0,4.4115624E0,0E0,1.6447039E0,0E0,0E0,0E0,0E0,0E0,0E0],"parents":[2147483647,0,0,1,1,2,2,3,3,4,4,5,5,8,8,10,10],"right_children":[2,4,6,8,10,12,-1,-1,14,-1,16,-1,-1,-1,-1,-1,-1],"split_conditions":[1E0,3.1894228E-1,1.9160216E0,3.8533247E0,1.9160216E0,1.196051E-1,8.805831E-2,-8.8114806E-2,9.580108E-1,-5.7715006E-2,9.580108E-1,-6.851922E-2,7.620088E-2,-4.3348536E-2,1.8070966E-2,3.68387E-2,9.071958E-2],"split_indices":[0,1,5,5,5,1,0,0,3,0,3,0,0,0,0,0,0],"split_type":[0,0,0,0,0,0,0,0,0,0,0,0,0,0,0,0,0],"sum_hessian":[9.96467E1,7.8668846E1,2.0977854E1,4.9892326E1,2.877652E1,6.445901E0,1.4531953E1,1.5335088E1,3.455724E1,6.340608E0,2.2435911E1,2.483467E0,3.9624338E0,2.5366198E1,9.191042E0,1.5730727E1,6.7051835E0],"tree_param":{"num_deleted":"0","num_feature":"6","num_nodes":"17","size_leaf_vector":"1"}},{"base_weights":[1.7445348E-2,-2.0468435E-1,8.4656125E-1,-6.959544E-1,4.6233433E-1,1.939303E-1,8.6483076E-2,-8.290081E-1,8.551497E-2,2.8098007E-3,9.807716E-2,-6.676316E-2,7.36395E-2,-9.642795E-2,-6.689191E-3,-4.1493826E-2,6.404268E-2],"categories":[],"categories_nodes":[],"categories_segments":[],"categories_sizes":[],"default_left":[0,0,0,0,0,0,0,0,0,0,0,0,0,0,0,0,0],"id":16,"left_children":[1,3,5,7,9,11,-1,13,-1,15,-1,-1,-1,-1,-1,-1,-1],"loss_changes":[1.9042238E1,2.713763E1,2.903617E0,1.2456312E1,1.2253724E1,6.929118E0,0E0,1.2358898E1,0E0,1.0474447E1,0E0,0E0,0E0,0E0,0E0,0E0,0E0],"parents":[2147483647,0,0,1,1,2,2,3,3,4,4,5,5,7,7,9,9],"right_children":[2,4,6,8,10,12,-1,14,-1,16,-1,-1,-1,-1,-1,-1,-1],"split_conditions":[1E0,3.154153E-1,3.8244333E-2,1E0,3.1894228E-1,1.196051E-1,8.6483076E-2,9.580108E-1,8.551497E-2,7.00192E-1,9.807716E-2,-6.676316E-2,7.36395E-2,-9.642795E-2,-6.689191E-3,-4.1493826E-2,6.404268E-2],"split_indices":[0,2,2,1,1,1,0,3,0,2,0,0,0,0,0,0,0],"split_type":[0,0,0,0,0,0,0,0,0,0,0,0,0,0,0,0,0],"sum_hessian":[1.00134384E2,7.9771706E1,2.0362675E1,4.598665E1,3.378506E1,6.219304E0,1.4143372E1,4.355514E1,2.431507E0,2.2114088E1,1.1670972E1,2.4254553E0,3.7938485E0,2.8238207E1,1.5316934E1,1.36138735E1,8.500215E0],"tree_param":{"num_deleted":"0","num_feature":"6","num_nodes":"17","size_leaf_vector":"1"}},{"base_weights":[5.7115085E-2,-2.5282156E-1,5.804951E-1,-4.956261E-1,7.714536E-1,2.1382968E-1,9.3789324E-2,-7.936463E-1,6.595819E-2,1.8450318E-1,8.933497E-2,-4.5108862E-2,9.270508E-2,-2.1971103E-2,-9.383768E-2,-7.56963E-2,4.030111E-2,-3.245142E-2,4.8296977E-2,-5.8216408E-2,6.251672E-2],"categories":[],"categories_nodes":[],"categories_segments":[],"categories_sizes":[],"default_left":[0,0,0,0,0,0,0,0,0,0,0,0,0,0,0,0,0,0,0,0,0],"id":17,"left_children":[1,3,5,7,9,11,-1,13,15,17,-1,19,-1,-1,-1,-1,-1,-1,-1,-1,-1],"loss_changes":[1.6247494E1,1.6177483E1,7.5688744E0,8.820923E0,2.1043272E0,6.292081E0,0E0,6.080143E0,9.191159E0,2.0082767E0,0E0,1.2659745E1,0E0,0E0,0E0,0E0,0E0,0E0,0E0,0E0,0E0],"parents":[2147483647,0,0,1,1,2,2,3,3,4,4,5,5,7,7,8,8,9,9,11,11],"right_children":[2,4,6,8,10,12,-1,14,16,18,-1,20,-1,-1,-1,-1,-1,-1,-1,-1,-1],"split_conditions":[3.2530016E-1,4.3848255E-1,3.1894228E-1,9.580108E-1,5.178125E1,9.580108E-1,9.3789324E-2,6.15625E1,5.178125E1,9.031537E-2,8.933497E-2,7.00192E-1,9.270508E-2,-2.1971103E-2,-9.383768E-2,-7.56963E-2,4.030111E-2,-3.245142E-2,4.8296977E-2,-5.8216408E-2,6.251672E-2],"split_indices":[2,1,1,3,4,3,0,4,4,2,0,2,0,0,0,0,0,0,0,0,0],"split_type":[0,0,0,0,0,0,0,0,0,0,0,0,0,0,0,0,0,0,0,0,0],"sum_hessian":[9.710135E1,6.135332E1,3.5748028E1,5.030122E1,1.1052099E1,2.343863E1,1.2309399E1,3.257345E1,1.7727774E1,5.0528235E0,5.9992757E0,1.9435587E1,4.0030427E0,1.4957561E1,1.7615887E1,4.7578464E0,1.2969927E1,2.019645E0,3.0331783E0,1.0809379E1,8.626208E0],"tree_param":{"num_deleted":"0","num_feature":"6","num_nodes":"21","size_leaf_vector":"1"}},{"base_weights":[3.0949881E-2,-6.7870396E-1,2.8785986E-1,-8.8667446E-1,2.9247567E-2,-4.1737545E-1,4.9416748E-1,-8.839355E-2,-3.8911426E-1,-6.967155E-1,2.7631024E-2,2.734983E-1,8.4957086E-2,-5.8041047E-2,3.4060556E-2,-7.744088E-2,-6.666425E-3,-1.5765514E-2,5.1376175E-2],"categories":[],"categories_nodes":[],"categories_segments":[],"categories_sizes":[],"default_left":[0,0,0,0,0,0,0,0,0,0,0,0,0,0,0,0,0,0,0],"id":18,"left_children":[1,3,5,7,-1,9,11,-1,13,15,-1,17,-1,-1,-1,-1,-1,-1,-1],"loss_changes":[1.8106104E1,6.2653904E0,1.0945265E1,1.6498337E0,0E0,4.0686474E0,6.611702E0,0E0,3.047493E0,1.9719944E0,0E0,7.7675714E0,0E0,0E0,0E0,0E0,0E0,0E0,0E0],"parents":[2147483647,0,0,1,1,2,2,3,3,5,5,6,6,8,8,9,9,11,11],"right_children":[2,4,6,8,-1,10,12,-1,14,16,-1,18,-1,-1,-1,-1,-1,-1,-1],"split_conditions":[7.602566E-2,7.00192E-1,3.8244333E-2,9.580108E-1,2.9247567E-2,4.3848255E-1,1E0,-8.839355E-2,2.562667E-1,1E0,2.7631024E-2,3.1894228E-1,8.4957086E-2,-5.8041047E-2,3.4060556E-2,-7.744088E-2,-6.666425E-3,-1.5765514E-2,5.1376175E-2],"split_indices":[1,2,2,3,0,1,0,0,2,0,0,1,0,0,0,0,0,0,0],"split_type":[0,0,0,0,0,0,0,0,0,0,0,0,0,0,0,0,0,0,0],"sum_hessian":[9.641799E1,2.4869598E1,7.154839E1,2.1008043E1,3.861556E0,1.5736371E1,5.5812027E1,1.3190361E1,7.8176813E0,1.1709202E1,4.0271697E0,4.1919147E1,1.3892879E1,5.736656E0,2.0810251E0,7.4041533E0,4.305048E0,1.860329E1,2.3315855E1],"tree_param":{"num_deleted":"0","num_feature":"6","num_nodes":"19","size_leaf_vector":"1"}},{"base_weights":[2.5325526E-2,-4.5868522E-1,3.6916798E-1,-6.734893E-1,4.9493355E-1,1.14381164E-1,8.1737226E-1,-8.8439465E-1,-1.7975768E-1,-4.4613127E-2,8.5581824E-2,-2.4344525E-1,8.2259405E-1,1.782829E-1,9.129852E-2,-8.639538E-2,-2.6698053E-2,3.01138E-2,-5.5325747E-2,1.0770982E-2,-5.7301342E-2,7.0778113E-3,9.174201E-2,-1.7634364E-2,5.9827738E-2],"categories":[],"categories_nodes":[],"categories_segments":[],"categories_sizes":[],"default_left":[0,0,0,0,0,0,0,0,0,0,0,0,0,0,0,0,0,0,0,0,0,0,0,0,0],"id":19,"left_children":[1,3,5,7,9,11,13,15,17,-1,-1,19,21,23,-1,-1,-1,-1,-1,-1,-1,-1,-1,-1,-1],"loss_changes":[1.5458419E1,8.407528E0,5.978601E0,3.0035658E0,5.701872E0,9.625374E0,3.563508E0,1.6877766E0,3.7380915E0,0E0,0E0,4.7358713E0,2.7493334E0,2.2035785E0,0E0,0E0,0E0,0E0,0E0,0E0,0E0,0E0,0E0,0E0,0E0],"parents":[2147483647,0,0,1,1,2,2,3,3,4,4,5,5,6,6,7,7,8,8,11,11,12,12,13,13],"right_children":[2,4,6,8,10,12,14,16,18,-1,-1,20,22,24,-1,-1,-1,-1,-1,-1,-1,-1,-1,-1,-1],"split_conditions":[1.01361044E-1,7.00192E-1,3.154153E-1,8.998534E-2,5.178125E1,9.580108E-1,3.1894228E-1,3.2530016E-1,9.1260634E-2,-4.4613127E-2,8.5581824E-2,6.15625E1,5.178125E1,7.00192E-1,9.129852E-2,-8.639538E-2,-2.6698053E-2,3.01138E-2,-5.5325747E-2,1.0770982E-2,-5.7301342E-2,7.0778113E-3,9.174201E-2,-1.7634364E-2,5.9827738E-2],"split_indices":[1,2,2,1,4,3,1,2,1,0,0,4,4,2,0,0,0,0,0,0,0,0,0,0,0],"split_type":[0,0,0,0,0,0,0,0,0,0,0,0,0,0,0,0,0,0,0,0,0,0,0,0,0],"sum_hessian":[8.9913635E1,3.701606E1,5.289758E1,3.0656199E1,6.3598585E0,3.506844E1,1.7829144E1,2.0506927E1,1.0149272E1,2.2007978E0,4.159061E0,2.3857536E1,1.1210902E1,6.882348E0,1.09467945E1,1.3935121E1,6.571807E0,4.960353E0,5.1889195E0,1.3735547E1,1.0121988E1,4.1135144E0,7.0973873E0,4.4859486E0,2.3963995E0],"tree_param":{"num_deleted":"0","num_feature":"6","num_nodes":"25","size_leaf_vector":"1"}},{"base_weights":[4.6409763E-4,-4.824217E-1,3.5141477E-1,-8.648019E-1,7.6755084E-2,1.18537046E-1,9.528956E-1,-8.448571E-2,-0E0,-4.7233652E-2,3.9651138E-1,-2.85909E-1,8.4052974E-1,2.303087E-2,8.313977E-2,-5.258168E-3,8.1420675E-2,-3.7942987E-2,8.112541E-2,9.879685E-3,8.3681315E-2],"categories":[],"categories_nodes":[],"categories_segments":[],"categories_sizes":[],"default_left":[0,0,0,0,0,0,0,0,0,0,0,0,0,0,0,0,0,0,0,0,0],"id":20,"left_children":[1,3,5,7,9,11,13,-1,-1,-1,15,17,19,-1,-1,-1,-1,-1,-1,-1,-1],"loss_changes":[1.4988232E1,8.119019E0,6.92053E0,3.6137772E0,3.8205354E0,1.1767264E1,2.2292328E-1,0E0,0E0,0E0,3.6569793E0,7.0214376E0,1.8149633E0,0E0,0E0,0E0,0E0,0E0,0E0,0E0,0E0],"parents":[2147483647,0,0,1,1,2,2,3,3,4,4,5,5,6,6,10,10,11,11,12,12],"right_children":[2,4,6,8,10,12,14,-1,-1,-1,16,18,20,-1,-1,-1,-1,-1,-1,-1,-1],"split_conditions":[1.01361044E-1,3.2530016E-1,1E0,1E0,1.5278918E-1,3.2530016E-1,1.196051E-1,-8.448571E-2,-0E0,-4.7233652E-2,5.832908E-1,1E0,2.090457E-1,2.303087E-2,8.313977E-2,-5.258168E-3,8.1420675E-2,-3.7942987E-2,8.112541E-2,9.879685E-3,8.3681315E-2],"split_indices":[1,2,0,0,0,2,1,0,0,0,2,1,1,0,0,0,0,0,0,0,0],"split_type":[0,0,0,0,0,0,0,0,0,0,0,0,0,0,0,0,0,0,0,0,0],"sum_hessian":[8.5519035E1,3.563739E1,4.9881645E1,2.0783834E1,1.4853556E1,3.7373478E1,1.2508168E1,1.6683186E1,4.1006494E0,4.29971E0,1.0553846E1,2.4446516E1,1.2926961E1,2.3177345E0,1.01904335E1,6.728125E0,3.825721E0,2.2251703E1,2.194813E0,3.522733E0,9.404227E0],"tree_param":{"num_deleted":"0","num_feature":"6","num_nodes":"21","size_leaf_vector":"1"}},{"base_weights":[-2.4414813E-2,-2.2102925E-1,7.087478E-1,-5.7839894E-1,3.0527225E-1,4.117193E-2,8.10815E-2,-7.025737E-1,7.60978E-2,-9.96566E-2,9.008718E-1,-6.8761595E-2,6.7806095E-2,-8.688859E-2,-1.2500163E-3,-3.378683E-2,8.2494125E-2,2.4099063E-2,8.269662E-2],"categories":[],"categories_nodes":[],"categories_segments":[],"categories_sizes":[],"default_left":[0,0,0,0,0,0,0,0,0,0,0,0,0,0,0,0,0,0,0],"id":21,"left_children":[1,3,5,7,9,11,-1,13,-1,15,17,-1,-1,-1,-1,-1,-1,-1,-1],"loss_changes":[1.276997E1,1.3474436E1,3.6384315E0,9.026157E0,7.2602205E0,6.561124E0,0E0,1.0433582E1,0E0,7.394262E0,3.6100578E-1,0E0,0E0,0E0,0E0,0E0,0E0,0E0,0E0],"parents":[2147483647,0,0,1,1,2,2,3,3,4,4,5,5,7,7,9,9,10,10],"right_children":[2,4,6,8,10,12,-1,14,-1,16,18,-1,-1,-1,-1,-1,-1,-1,-1],"split_conditions":[1E0,3.2530016E-1,3.8244333E-2,1E0,1.6947219E-1,1.196051E-1,8.10815E-2,9.580108E-1,7.60978E-2,9.580108E-1,3.1894228E-1,-6.8761595E-2,6.7806095E-2,-8.688859E-2,-1.2500163E-3,-3.378683E-2,8.2494125E-2,2.4099063E-2,8.269662E-2],"split_indices":[0,2,2,1,1,1,0,3,0,3,1,0,0,0,0,0,0,0,0],"split_type":[0,0,0,0,0,0,0,0,0,0,0,0,0,0,0,0,0,0,0],"sum_hessian":[8.579607E1,6.858706E1,1.7209013E1,4.087417E1,2.7712889E1,6.030484E0,1.117853E1,3.8615746E1,2.2584214E0,1.7140642E1,1.0572247E1,2.7434509E0,3.287033E0,2.4127718E1,1.4488028E1,1.4135386E1,3.0052552E0,2.9427645E0,7.6294823E0],"tree_param":{"num_deleted":"0","num_feature":"6","num_nodes":"19","size_leaf_vector":"1"}},{"base_weights":[1.5846306E-2,-1.5998931E-1,7.2585887E-1,-3.7166998E-1,8.1185627E-1,6.6686454E-3,7.929367E-2,-7.4284047E-1,2.8304243E-1,1.8843051E-2,8.564803E-2,-7.1725644E-2,-3.136473E-2,2.9155225E-4,8.3095804E-2],"categories":[],"categories_nodes":[],"categories_segments":[],"categories_sizes":[],"default_left":[0,0,0,0,0,0,0,0,0,0,0,0,0,0,0],"id":22,"left_children":[1,3,5,7,9,-1,-1,11,13,-1,-1,-1,-1,-1,-1],"loss_changes":[1.0723687E1,1.4496463E1,2.6778498E0,1.4296959E1,1.3752089E0,0E0,0E0,1.3450031E0,4.479329E0,0E0,0E0,0E0,0E0,0E0,0E0],"parents":[2147483647,0,0,1,1,2,2,3,3,4,4,7,7,8,8],"right_children":[2,4,6,8,10,-1,-1,12,14,-1,-1,-1,-1,-1,-1],"split_conditions":[1E0,7.00192E-1,3.8244333E-2,9.580108E-1,1.5278918E-1,6.6686454E-3,7.929367E-2,3.154153E-1,2.9884174E-1,1.8843051E-2,8.564803E-2,-7.1725644E-2,-3.136473E-2,2.9155225E-4,8.3095804E-2],"split_indices":[0,2,2,3,0,0,0,2,2,0,0,0,0,0,0],"split_type":[0,0,0,0,0,0,0,0,0,0,0,0,0,0,0],"sum_hessian":[8.254714E1,6.6980484E1,1.5566654E1,5.5845783E1,1.1134701E1,5.235689E0,1.0330965E1,3.560907E1,2.0236715E1,4.4577055E0,6.6769953E0,2.2937664E1,1.2671406E1,1.597109E1,4.265625E0],"tree_param":{"num_deleted":"0","num_feature":"6","num_nodes":"15","size_leaf_vector":"1"}},{"base_weights":[4.0069383E-2,-3.6651677E-1,3.4438634E-1,-6.068226E-1,5.889847E-1,1.26685E-1,8.8298154E-1,-7.6215595E-1,1.2909442E-1,7.315681E-2,4.639006E-3,-1.9763303E-1,6.5148604E-1,1.4798501E-2,9.117291E-2,-8.516953E-2,-1.702414E-2,-4.3481126E-2,5.7070266E-2,-5.1445182E-2,5.4279096E-2,4.7607874E-3,8.040051E-2],"categories":[],"categories_nodes":[],"categories_segments":[],"categories_sizes":[],"default_left":[0,0,0,0,0,0,0,0,0,0,0,0,0,0,0,0,0,0,0,0,0,0,0],"id":23,"left_children":[1,3,5,7,9,11,13,15,17,-1,-1,19,21,-1,-1,-1,-1,-1,-1,-1,-1,-1,-1],"loss_changes":[1.0409812E1,8.79323E0,5.3789544E0,3.5889025E0,1.1889985E0,6.3973737E0,1.9666853E0,3.6415272E0,3.0826325E0,0E0,0E0,9.781921E0,2.7939286E0,0E0,0E0,0E0,0E0,0E0,0E0,0E0,0E0,0E0,0E0],"parents":[2147483647,0,0,1,1,2,2,3,3,4,4,5,5,6,6,7,7,8,8,11,11,12,12],"right_children":[2,4,6,8,10,12,14,16,18,-1,-1,20,22,-1,-1,-1,-1,-1,-1,-1,-1,-1,-1],"split_conditions":[1.01361044E-1,7.00192E-1,9.580108E-1,1E0,7.9163426E-1,3.2530016E-1,1.5278918E-1,9.580108E-1,7.379855E-2,7.315681E-2,4.639006E-3,1E0,3.1894228E-1,1.4798501E-2,9.117291E-2,-8.516953E-2,-1.702414E-2,-4.3481126E-2,5.7070266E-2,-5.1445182E-2,5.4279096E-2,4.7607874E-3,8.040051E-2],"split_indices":[1,2,3,0,2,2,0,3,2,0,0,0,1,0,0,0,0,0,0,0,0,0,0],"split_type":[0,0,0,0,0,0,0,0,0,0,0,0,0,0,0,0,0,0,0,0,0,0,0],"sum_hessian":[8.112023E1,3.445331E1,4.6666927E1,2.8050676E1,6.402631E0,3.468547E1,1.1981455E1,2.3229849E1,4.820827E0,3.1811695E0,3.2214615E0,2.1897665E1,1.2787808E1,4.0200787E0,7.9613757E0,1.3956651E1,9.273199E0,2.210123E0,2.6107042E0,1.4857216E1,7.0404487E0,5.542375E0,7.2454333E0],"tree_param":{"num_deleted":"0","num_feature":"6","num_nodes":"23","size_leaf_vector":"1"}},{"base_weights":[5.309835E-2,-1.8552636E-1,6.312948E-1,-3.5217366E-1,6.5856004E-1,3.5481536E-1,7.745704E-2,-6.1668986E-1,1.332973E-1,1.6940162E-3,7.988654E-2,4.8639152E-2,7.307705E-2,-2.1563277E-2,-7.389547E-2,-1.6260998E-2,8.261425E-2,-6.482575E-2,3.0855712E-2],"categories":[],"categories_nodes":[],"categories_segments":[],"categories_sizes":[],"default_left":[0,0,0,0,0,0,0,0,0,0,0,0,0,0,0,0,0,0,0],"id":24,"left_children":[1,3,5,7,9,11,-1,13,15,-1,-1,17,-1,-1,-1,-1,-1,-1,-1],"loss_changes":[1.135025E1,8.495363E0,1.5907621E0,6.544811E0,2.0356197E0,2.5275502E0,0E0,2.9736423E0,6.0291753E0,0E0,0E0,3.8602078E0,0E0,0E0,0E0,0E0,0E0,0E0,0E0],"parents":[2147483647,0,0,1,1,2,2,3,3,4,4,5,5,7,7,8,8,11,11],"right_children":[2,4,6,8,10,12,-1,14,16,-1,-1,18,-1,-1,-1,-1,-1,-1,-1],"split_conditions":[3.353142E-1,7.00192E-1,2.7076882E-1,9.580108E-1,5.178125E1,9.580108E-1,7.745704E-2,6.15625E1,2.9884174E-1,1.6940162E-3,7.988654E-2,5.178125E1,7.307705E-2,-2.1563277E-2,-7.389547E-2,-1.6260998E-2,8.261425E-2,-6.482575E-2,3.0855712E-2],"split_indices":[1,2,2,3,4,3,0,4,2,0,0,4,0,0,0,0,0,0,0],"split_type":[0,0,0,0,0,0,0,0,0,0,0,0,0,0,0,0,0,0,0],"sum_hessian":[7.91685E1,5.6639023E1,2.2529482E1,4.812949E1,8.509533E0,1.4229259E1,8.300222E0,3.1025387E1,1.7104103E1,3.6169412E0,4.892592E0,1.0360576E1,3.8686829E0,1.6035591E1,1.4989796E1,1.3210408E1,3.8936949E0,2.2426164E0,8.117959E0],"tree_param":{"num_deleted":"0","num_feature":"6","num_nodes":"19","size_leaf_vector":"1"}},{"base_weights":[6.593772E-2,-3.7885168E-1,3.5132974E-1,-6.9325276E-2,-1.5162817E-1,1.7160395E-1,8.474327E-1,-3.2055026E-1,5.76221E-2,-5.639103E-1,3.5891175E-1,7.324683E-3,7.826662E-2,-5.6148518E-2,-5.2933064E-3,-6.549854E-2,1.5904526E-3,1.370454E-2,6.931667E-2],"categories":[],"categories_nodes":[],"categories_segments":[],"categories_sizes":[],"default_left":[0,0,0,0,0,0,0,0,0,0,0,0,0,0,0,0,0,0,0],"id":25,"left_children":[1,3,5,-1,7,9,11,13,-1,15,17,-1,-1,-1,-1,-1,-1,-1,-1],"loss_changes":[1.02981615E1,3.212637E0,4.083571E0,0E0,3.7784414E0,5.5572906E0,1.0058632E0,1.879077E0,0E0,1.3309214E0,2.6765547E0,0E0,0E0,0E0,0E0,0E0,0E0,0E0,0E0],"parents":[2147483647,0,0,1,1,2,2,4,4,5,5,6,6,7,7,9,9,10,10],"right_children":[2,4,6,-1,8,10,12,14,-1,16,18,-1,-1,-1,-1,-1,-1,-1,-1],"split_conditions":[9.722215E-2,3.8533247E0,1E0,-6.9325276E-2,1E0,1.9160216E0,1.196051E-1,1.5278918E-1,5.76221E-2,4.3848255E-1,4.3848255E-1,7.324683E-3,7.826662E-2,-5.6148518E-2,-5.2933064E-3,-6.549854E-2,1.5904526E-3,1.370454E-2,6.931667E-2],"split_indices":[1,5,0,0,0,5,1,0,0,1,1,0,0,0,0,0,0,0,0],"split_type":[0,0,0,0,0,0,0,0,0,0,0,0,0,0,0,0,0,0,0],"sum_hessian":[7.80755E1,3.018693E1,4.788857E1,8.112826E0,2.2074102E1,3.6783314E1,1.1105254E1,1.9382229E1,2.6918726E0,6.745502E0,3.0037811E1,2.128351E0,8.976903E0,6.542998E0,1.2839232E1,4.3948216E0,2.3506799E0,2.354E1,6.4978104E0],"tree_param":{"num_deleted":"0","num_feature":"6","num_nodes":"19","size_leaf_vector":"1"}},{"base_weights":[-3.2270271E-3,-1.8350036E-1,7.1932346E-1,-5.3032047E-1,3.2358465E-1,1.3148054E-1,7.685114E-2,-7.7130504E-2,-1.4004469E-1,-3.671308E-2,8.256998E-2,-3.4462452E-2,5.65538E-2,-5.5174053E-2,6.465261E-2,-2.534461E-2,7.617477E-2],"categories":[],"categories_nodes":[],"categories_segments":[],"categories_sizes":[],"default_left":[0,0,0,0,0,0,0,0,0,0,0,0,0,0,0,0,0],"id":26,"left_children":[1,3,5,7,9,11,-1,-1,13,15,-1,-1,-1,-1,-1,-1,-1],"loss_changes":[1.0316813E1,1.1499674E1,1.940939E0,6.2183495E0,6.980221E0,2.5723736E0,0E0,0E0,1.23854885E1,5.6723223E0,0E0,0E0,0E0,0E0,0E0,0E0,0E0],"parents":[2147483647,0,0,1,1,2,2,3,3,4,4,5,5,8,8,9,9],"right_children":[2,4,6,8,10,12,-1,-1,14,16,-1,-1,-1,-1,-1,-1,-1],"split_conditions":[1E0,3.154153E-1,3.8244333E-2,1.6494305E-1,3.1894228E-1,1.2377798E-1,7.685114E-2,-7.7130504E-2,9.580108E-1,9.580108E-1,8.256998E-2,-3.4462452E-2,5.65538E-2,-5.5174053E-2,6.465261E-2,-2.534461E-2,7.617477E-2],"split_indices":[0,2,2,1,1,1,0,0,3,3,0,0,0,0,0,0,0],"split_type":[0,0,0,0,0,0,0,0,0,0,0,0,0,0,0,0,0],"sum_hessian":[7.65951E1,6.2307175E1,1.4287925E1,3.707693E1,2.5230244E1,4.953329E0,9.334596E0,1.6393234E1,2.0683699E1,1.7574583E1,7.65566E0,2.6081896E0,2.3451397E0,1.3419464E1,7.2642345E0,1.4568727E1,3.0058572E0],"tree_param":{"num_deleted":"0","num_feature":"6","num_nodes":"17","size_leaf_vector":"1"}},{"base_weights":[4.642021E-2,-1.1633955E-1,7.655685E-2,-3.5776612E-1,6.380728E-1,-7.039668E-1,1.751788E-1,5.958329E-2,7.527275E-2,-8.64885E-2,-1.26945935E-2,-1.0617703E-2,7.562866E-2,-6.390063E-2,6.383516E-2],"categories":[],"categories_nodes":[],"categories_segments":[],"categories_sizes":[],"default_left":[0,0,0,0,0,0,0,0,0,0,0,0,0,0,0],"id":27,"left_children":[1,3,-1,5,7,9,11,13,-1,-1,-1,-1,-1,-1,-1],"loss_changes":[1.1242493E1,1.2000885E1,0E0,9.402227E0,2.6178203E0,5.895664E0,5.1656475E0,5.525803E0,0E0,0E0,0E0,0E0,0E0,0E0,0E0],"parents":[2147483647,0,0,1,1,3,3,4,4,5,5,6,6,7,7],"right_children":[2,4,-1,6,8,10,12,14,-1,-1,-1,-1,-1,-1,-1],"split_conditions":[7.00192E-1,1E0,7.655685E-2,3.1894228E-1,3.8244333E-2,9.580108E-1,9.580108E-1,1.196051E-1,7.527275E-2,-8.64885E-2,-1.26945935E-2,-1.0617703E-2,7.562866E-2,-6.390063E-2,6.383516E-2],"split_indices":[2,0,0,1,2,3,3,1,0,0,0,0,0,0,0],"split_type":[0,0,0,0,0,0,0,0,0,0,0,0,0,0,0],"sum_hessian":[7.2666534E1,6.2663845E1,1.0002687E1,4.816979E1,1.449406E1,2.902285E1,1.9146936E1,5.710668E0,8.783392E0,1.6176916E1,1.2845935E1,1.4472739E1,4.6741967E0,2.5213952E0,3.1892726E0],"tree_param":{"num_deleted":"0","num_feature":"6","num_nodes":"15","size_leaf_vector":"1"}},{"base_weights":[4.6718296E-2,-1.7690624E-1,6.334758E-1,-7.437574E-1,7.109156E-2,3.7924364E-1,7.515187E-2,-7.746572E-2,-2.9368937E-1,-1.8143208E-1,6.809696E-2,4.882847E-2,-2.7579129E-2,-6.7457676E-2,1.898716E-2,-4.359177E-2,3.0740714E-2],"categories":[],"categories_nodes":[],"categories_segments":[],"categories_sizes":[],"default_left":[0,0,0,0,0,0,0,0,0,0,0,0,0,0,0,0,0],"id":28,"left_children":[1,3,5,7,9,11,-1,-1,13,15,-1,-1,-1,-1,-1,-1,-1],"loss_changes":[9.8418E0,7.762778E0,9.436321E-1,1.1393709E0,7.9688435E0,2.6844661E0,0E0,0E0,2.6586347E0,6.612238E0,0E0,0E0,0E0,0E0,0E0,0E0,0E0],"parents":[2147483647,0,0,1,1,2,2,3,3,4,4,5,5,8,8,9,9],"right_children":[2,4,6,8,10,12,-1,-1,14,16,-1,-1,-1,-1,-1,-1,-1],"split_conditions":[3.353142E-1,1.5278918E-1,2.7076882E-1,1.6494305E-1,4.124531E-1,2.1262959E-1,7.515187E-2,-7.746572E-2,2.9510418E-1,9.580108E-1,6.809696E-2,4.882847E-2,-2.7579129E-2,-6.7457676E-2,1.898716E-2,-4.359177E-2,3.0740714E-2],"split_indices":[1,0,2,1,2,2,0,0,2,3,0,0,0,0,0,0,0],"split_type":[0,0,0,0,0,0,0,0,0,0,0,0,0,0,0,0,0],"sum_hessian":[7.1877E1,5.2677803E1,1.9199198E1,1.5242505E1,3.74353E1,1.2498721E1,6.7004766E0,8.868218E0,6.374287E0,2.9053644E1,8.381654E0,9.757457E0,2.7412639E0,2.7917385E0,3.5825486E0,1.7829702E1,1.1223942E1],"tree_param":{"num_deleted":"0","num_feature":"6","num_nodes":"17","size_leaf_vector":"1"}},{"base_weights":[4.393593E-2,-3.3051568E-1,3.4279078E-1,-6.939985E-2,-7.200261E-2,1.6348737E-1,7.4624434E-2,-6.402055E-2,2.1314704E-1,-2.3600124E-1,5.858442E-1,-3.6159072E-2,4.0257834E-2,-6.024993E-2,4.4952605E-2,-1.2646388E-2,6.0363553E-2],"categories":[],"categories_nodes":[],"categories_segments":[],"categories_sizes":[],"default_left":[0,0,0,0,0,0,0,0,0,0,0,0,0,0,0,0,0],"id":29,"left_children":[1,3,5,-1,7,9,-1,-1,11,13,15,-1,-1,-1,-1,-1,-1],"loss_changes":[8.202632E0,4.319851E0,3.9777575E0,0E0,5.2320304E0,5.8505826E0,0E0,0E0,3.8390749E0,8.093064E0,2.3355708E0,0E0,0E0,0E0,0E0,0E0,0E0],"parents":[2147483647,0,0,1,1,2,2,4,4,5,5,8,8,9,9,10,10],"right_children":[2,4,6,-1,8,10,-1,-1,12,14,16,-1,-1,-1,-1,-1,-1],"split_conditions":[1.196051E-1,1.1912765E-1,1E0,-6.939985E-2,1.5278918E-1,2.7076882E-1,7.4624434E-2,-6.402055E-2,4.008902E-2,9.580108E-1,1.6947219E-1,-3.6159072E-2,4.0257834E-2,-6.024993E-2,4.4952605E-2,-1.2646388E-2,6.0363553E-2],"split_indices":[1,2,0,0,0,2,0,0,1,3,1,0,0,0,0,0,0],"split_type":[0,0,0,0,0,0,0,0,0,0,0,0,0,0,0,0,0],"sum_hessian":[7.026925E1,3.0970762E1,3.9298485E1,8.790583E0,2.218018E1,3.1738415E1,7.560071E0,5.5772524E0,1.6602928E1,1.6529226E1,1.5209188E1,4.6829853E0,1.1919943E1,1.0156404E1,6.3728228E0,2.7193277E0,1.2489861E1],"tree_param":{"num_deleted":"0","num_feature":"6","num_nodes":"17","size_leaf_vector":"1"}},{"base_weights":[2.3169328E-2,-4.1911855E-1,2.4000424E-1,-7.373836E-2,-9.698503E-4,1.10326774E-1,8.192644E-2,-4.613366E-2,5.6228757E-1,-7.984358E-2,6.548885E-2,1.3362294E-2,7.083183E-2,-2.7029272E-2,3.831525E-2],"categories":[],"categories_nodes":[],"categories_segments":[],"categories_sizes":[],"default_left":[0,0,0,0,0,0,0,0,0,0,0,0,0,0,0],"id":30,"left_children":[1,3,5,-1,7,9,-1,-1,11,13,-1,-1,-1,-1,-1],"loss_changes":[6.8934503E0,4.8631053E0,4.6390424E0,0E0,5.184609E0,6.008023E0,0E0,0E0,6.9372296E-1,5.3343887E0,0E0,0E0,0E0,0E0,0E0],"parents":[2147483647,0,0,1,1,2,2,4,4,5,5,8,8,9,9],"right_children":[2,4,6,-1,8,10,-1,-1,12,14,-1,-1,-1,-1,-1],"split_conditions":[1.5278918E-1,2.7076882E-1,4.3848255E-1,-7.373836E-2,1.6494305E-1,4.124531E-1,8.192644E-2,-4.613366E-2,3.1894228E-1,1E0,6.548885E-2,1.3362294E-2,7.083183E-2,-2.7029272E-2,3.831525E-2],"split_indices":[0,2,1,0,1,2,0,0,1,0,0,0,0,0,0],"split_type":[0,0,0,0,0,0,0,0,0,0,0,0,0,0,0],"sum_hessian":[6.899253E1,2.2084753E1,4.6907776E1,9.100463E0,1.298429E1,4.1828426E1,5.079352E0,6.49135E0,6.4929395E0,3.3912758E1,7.9156685E0,4.08306E0,2.40988E0,2.3728128E1,1.0184628E1],"tree_param":{"num_deleted":"0","num_feature":"6","num_nodes":"15","size_leaf_vector":"1"}},{"base_weights":[1.952082E-2,-2.1337482E-1,4.031602E-1,-4.594804E-1,4.8667586E-1,-9.167716E-3,6.237587E-1,-8.191618E-1,2.3178222E-2,-2.159295E-4,6.8097286E-2,-2.8661045E-1,3.652277E-2,1.1865892E-1,7.6373085E-2,-6.9601275E-2,-2.0499982E-2,-2.1676667E-2,1.6499326E-2,1.4456985E-2,-4.545602E-2,6.5483145E-2,-3.374475E-2],"categories":[],"categories_nodes":[],"categories_segments":[],"categories_sizes":[],"default_left":[0,0,0,0,0,0,0,0,0,0,0,0,0,0,0,0,0,0,0,0,0,0,0],"id":31,"left_children":[1,3,5,7,9,11,13,15,17,-1,-1,19,-1,21,-1,-1,-1,-1,-1,-1,-1,-1,-1],"loss_changes":[6.4549785E0,8.041247E0,2.5574164E0,6.007433E0,2.2755857E0,1.5813477E0,2.7303915E0,1.149416E-1,9.3082356E-1,0E0,0E0,1.2266018E0,0E0,3.944977E0,0E0,0E0,0E0,0E0,0E0,0E0,0E0,0E0,0E0],"parents":[2147483647,0,0,1,1,2,2,3,3,4,4,5,5,6,6,7,7,8,8,11,11,13,13],"right_children":[2,4,6,8,10,12,14,16,18,-1,-1,20,-1,22,-1,-1,-1,-1,-1,-1,-1,-1,-1],"split_conditions":[3.2530016E-1,1E0,1.5278918E-1,9.580108E-1,3.8244333E-2,8.339656E-1,4.124531E-1,3.0034253E-1,1.5278918E-1,-2.159295E-4,6.8097286E-2,5.5428475E-1,3.652277E-2,3.7998095E-1,7.6373085E-2,-6.9601275E-2,-2.0499982E-2,-2.1676667E-2,1.6499326E-2,1.4456985E-2,-4.545602E-2,6.5483145E-2,-3.374475E-2],"split_indices":[2,0,0,3,2,2,2,2,0,0,0,2,0,2,0,0,0,0,0,0,0,0,0],"split_type":[0,0,0,0,0,0,0,0,0,0,0,0,0,0,0,0,0,0,0,0,0,0,0],"sum_hessian":[6.908879E1,4.32426E1,2.584619E1,3.248181E1,1.0760791E1,9.351444E0,1.6494745E1,1.8131481E1,1.4350329E1,5.112338E0,5.6484523E0,6.356265E0,2.9951792E0,7.455148E0,9.0395975E0,1.5715711E1,2.41577E0,5.019232E0,9.331098E0,2.458465E0,3.8978E0,2.9928396E0,4.462309E0],"tree_param":{"num_deleted":"0","num_feature":"6","num_nodes":"23","size_leaf_vector":"1"}},{"base_weights":[8.0108285E-2,-1.3888323E-1,4.5189193E-1,-3.619931E-1,5.2554077E-1,2.0072423E-1,7.110152E-2,-5.700736E-1,3.6616378E-2,1.2349016E-3,6.7043036E-2,-5.8851738E-2,7.640653E-2,-8.1759326E-2,-3.2875498E-3,-5.6384772E-2,5.4571815E-2,-4.3845586E-2,3.7742913E-2],"categories":[],"categories_nodes":[],"categories_segments":[],"categories_sizes":[],"default_left":[0,0,0,0,0,0,0,0,0,0,0,0,0,0,0,0,0,0,0],"id":32,"left_children":[1,3,5,7,9,11,-1,13,-1,15,-1,17,-1,-1,-1,-1,-1,-1,-1],"loss_changes":[5.5208135E0,6.5961018E0,2.3761764E0,6.0232015E0,1.7542422E0,3.7008605E0,0E0,6.2963715E0,0E0,3.5144525E0,0E0,4.2154284E0,0E0,0E0,0E0,0E0,0E0,0E0,0E0],"parents":[2147483647,0,0,1,1,2,2,3,3,4,4,5,5,7,7,9,9,11,11],"right_children":[2,4,6,8,10,12,-1,14,-1,16,-1,18,-1,-1,-1,-1,-1,-1,-1],"split_conditions":[3.154153E-1,1E0,2.090457E-1,4.3848255E-1,3.8244333E-2,9.580108E-1,7.110152E-2,9.580108E-1,3.6616378E-2,1.196051E-1,6.7043036E-2,7.00192E-1,7.640653E-2,-8.1759326E-2,-3.2875498E-3,-5.6384772E-2,5.4571815E-2,-4.3845586E-2,3.7742913E-2],"split_indices":[2,0,1,1,2,3,0,3,0,1,0,2,0,0,0,0,0,0,0],"split_type":[0,0,0,0,0,0,0,0,0,0,0,0,0,0,0,0,0,0,0],"sum_hessian":[6.4768E1,4.1181545E1,2.3586456E1,3.1453056E1,9.728488E0,1.6511694E1,7.074764E0,2.5546791E1,5.9062657E0,4.3149023E0,5.4135857E0,1.3214849E1,3.296844E0,1.2921031E1,1.2625759E1,2.0204132E0,2.2944891E0,6.9481907E0,6.2666583E0],"tree_param":{"num_deleted":"0","num_feature":"6","num_nodes":"19","size_leaf_vector":"1"}},{"base_weights":[4.3154913E-3,-1.3629895E-1,7.109382E-1,-2.872994E-1,5.4057527E-1,2.1382076E-1,8.2591705E-2,-4.8553488E-1,5.553491E-1,-8.296641E-3,6.863972E-2,-1.2492901E-2,4.3078408E-2,-7.3516876E-2,1.4896743E-2,-0E0,7.030386E-2],"categories":[],"categories_nodes":[],"categories_segments":[],"categories_sizes":[],"default_left":[0,0,0,0,0,0,0,0,0,0,0,0,0,0,0,0,0],"id":33,"left_children":[1,3,5,7,9,11,-1,13,15,-1,-1,-1,-1,-1,-1,-1,-1],"loss_changes":[6.6281433E0,5.836694E0,1.3167677E0,8.103054E0,2.3450131E0,9.2949635E-1,0E0,1.1463705E1,1.6311207E0,0E0,0E0,0E0,0E0,0E0,0E0,0E0,0E0],"parents":[2147483647,0,0,1,1,2,2,3,3,4,4,5,5,7,7,8,8],"right_children":[2,4,6,8,10,12,-1,14,16,-1,-1,-1,-1,-1,-1,-1,-1],"split_conditions":[4.3848255E-1,1E0,1.5278918E-1,7.00192E-1,3.8244333E-2,2.3347417E-1,8.2591705E-2,9.580108E-1,1.5278918E-1,-8.296641E-3,6.863972E-2,-1.2492901E-2,4.3078408E-2,-7.3516876E-2,1.4896743E-2,-0E0,7.030386E-2],"split_indices":[1,0,0,2,2,2,0,3,0,0,0,0,0,0,0,0,0],"split_type":[0,0,0,0,0,0,0,0,0,0,0,0,0,0,0,0,0],"sum_hessian":[6.316628E1,5.357439E1,9.59189E0,4.4629322E1,8.945067E0,4.869812E0,4.7220783E0,3.674041E1,7.888914E0,3.1817718E0,5.7632957E0,2.4959311E0,2.3738809E0,2.2086489E1,1.465392E1,3.5273829E0,4.3615313E0],"tree_param":{"num_deleted":"0","num_feature":"6","num_nodes":"17","size_leaf_vector":"1"}},{"base_weights":[3.1903997E-2,-9.991303E-2,5.789238E-1,-1.8562748E-1,7.356484E-2,2.142687E-3,6.9811225E-2,-4.3829522E-1,2.722383E-1,-4.4116855E-2,8.007698E-3,-2.7127846E-3,6.463217E-2],"categories":[],"categories_nodes":[],"categories_segments":[],"categories_sizes":[],"default_left":[0,0,0,0,0,0,0,0,0,0,0,0,0],"id":34,"left_children":[1,3,5,7,-1,-1,-1,9,11,-1,-1,-1,-1],"loss_changes":[4.739532E0,4.7784295E0,1.9457583E0,5.9629483E0,0E0,0E0,0E0,2.1288147E0,3.154375E0,0E0,0E0,0E0,0E0],"parents":[2147483647,0,0,1,1,2,2,3,3,7,7,8,8],"right_children":[2,4,6,8,-1,-1,-1,10,12,-1,-1,-1,-1],"split_conditions":[1E0,9.516452E-1,3.8244333E-2,9.580108E-1,7.356484E-2,2.142687E-3,6.9811225E-2,7.00192E-1,2.1262959E-1,-4.4116855E-2,8.007698E-3,-2.7127846E-3,6.463217E-2],"split_indices":[0,2,2,3,0,0,0,2,2,0,0,0,0],"split_type":[0,0,0,0,0,0,0,0,0,0,0,0,0],"sum_hessian":[6.2362007E1,5.109315E1,1.1268855E1,4.8352757E1,2.7403953E0,4.5995955E0,6.6692595E0,3.1340433E1,1.7012323E1,2.6020472E1,5.3199615E0,1.1600592E1,5.411731E0],"tree_param":{"num_deleted":"0","num_feature":"6","num_nodes":"13","size_leaf_vector":"1"}},{"base_weights":[2.5887175E-2,-2.0638013E-1,4.3589452E-1,-4.0538758E-1,4.6293774E-1,-1.9012569E-2,6.4562607E-1,-6.1472565E-1,2.8880543E-1,-4.540302E-3,6.552685E-2,-1.9298408E-2,8.639418E-3,2.681165E-1,6.286478E-2,-7.819388E-2,-1.788401E-2,-8.250131E-3,5.4550443E-2,-6.2533515E-3,4.8852544E-2],"categories":[],"categories_nodes":[],"categories_segments":[],"categories_sizes":[],"default_left":[0,0,0,0,0,0,0,0,0,0,0,0,0,0,0,0,0,0,0,0,0],"id":35,"left_children":[1,3,5,7,9,11,13,15,17,-1,-1,-1,-1,19,-1,-1,-1,-1,-1,-1,-1],"loss_changes":[6.0264397E0,5.630515E0,2.2681174E0,4.935005E0,1.9595659E0,2.934272E-1,4.1910553E-1,3.11347E0,1.4422467E0,0E0,0E0,0E0,0E0,9.279813E-1,0E0,0E0,0E0,0E0,0E0,0E0,0E0],"parents":[2147483647,0,0,1,1,2,2,3,3,4,4,5,5,6,6,7,7,8,8,13,13],"right_children":[2,4,6,8,10,12,14,16,18,-1,-1,-1,-1,20,-1,-1,-1,-1,-1,-1,-1],"split_conditions":[3.2530016E-1,1E0,7.602566E-2,3.867522E-1,1.196051E-1,1.5278918E-1,1.5278918E-1,9.580108E-1,1.5278918E-1,-4.540302E-3,6.552685E-2,-1.9298408E-2,8.639418E-3,7.00192E-1,6.286478E-2,-7.819388E-2,-1.788401E-2,-8.250131E-3,5.4550443E-2,-6.2533515E-3,4.8852544E-2],"split_indices":[2,0,1,1,1,0,0,3,0,0,0,0,0,2,0,0,0,0,0,0,0],"split_type":[0,0,0,0,0,0,0,0,0,0,0,0,0,0,0,0,0,0,0,0,0],"sum_hessian":[6.0124153E1,3.870118E1,2.1422976E1,3.0402529E1,8.29865E0,7.040145E0,1.4382832E1,2.3601206E1,6.801322E0,3.7731097E0,4.52554E0,2.3560846E0,4.68406E0,5.2708616E0,9.11197E0,1.0947253E1,1.2653953E1,3.832262E0,2.9690602E0,3.051641E0,2.2192206E0],"tree_param":{"num_deleted":"0","num_feature":"6","num_nodes":"21","size_leaf_vector":"1"}},{"base_weights":[5.2208956E-2,-4.5746338E-1,2.623784E-1,-6.8980314E-2,-0E0,4.9333952E-2,7.8241736E-1,-3.1631652E-2,1.8106444E-1,-2.556852E-1,4.709775E-1,1.5195073E-2,8.137751E-2,-1.9453766E-2,5.7704423E-2,-4.6725698E-2,2.7408676E-2,3.4315055E-3,7.4024215E-2],"categories":[],"categories_nodes":[],"categories_segments":[],"categories_sizes":[],"default_left":[0,0,0,0,0,0,0,0,0,0,0,0,0,0,0,0,0,0,0],"id":36,"left_children":[1,3,5,-1,7,9,11,-1,13,15,17,-1,-1,-1,-1,-1,-1,-1,-1],"loss_changes":[6.513804E0,3.2186449E0,4.6325397E0,0E0,8.324101E-1,4.3565416E0,1.298387E0,0E0,2.0747263E0,4.170802E0,2.6101408E0,0E0,0E0,0E0,0E0,0E0,0E0,0E0,0E0],"parents":[2147483647,0,0,1,1,2,2,4,4,5,5,6,6,8,8,9,9,10,10],"right_children":[2,4,6,-1,8,10,12,-1,14,16,18,-1,-1,-1,-1,-1,-1,-1,-1],"split_conditions":[8.998534E-2,3.2530016E-1,9.580108E-1,-6.8980314E-2,1.5278918E-1,3.154153E-1,1.5278918E-1,-3.1631652E-2,5.832908E-1,1E0,3.1894228E-1,1.5195073E-2,8.137751E-2,-1.9453766E-2,5.7704423E-2,-4.6725698E-2,2.7408676E-2,3.4315055E-3,7.4024215E-2],"split_indices":[1,2,3,0,0,2,0,0,2,0,1,0,0,0,0,0,0,0,0],"split_type":[0,0,0,0,0,0,0,0,0,0,0,0,0,0,0,0,0,0,0],"sum_hessian":[5.781119E1,1.6224684E1,4.158651E1,7.818233E0,8.40645E0,3.080231E1,1.0784197E1,2.2106004E0,6.1958504E0,1.8077896E1,1.2724415E1,3.9518113E0,6.832385E0,3.828866E0,2.3669844E0,1.1802594E1,6.2753024E0,7.5099554E0,5.2144594E0],"tree_param":{"num_deleted":"0","num_feature":"6","num_nodes":"19","size_leaf_vector":"1"}},{"base_weights":[8.146391E-2,-4.6696603E-2,6.716469E-1,-3.2124323E-1,3.1852308E-1,2.2809999E-1,7.984214E-2,-7.3659575E-1,9.934502E-2,1.260011E-1,7.260663E-2,-2.9460268E-2,6.827277E-2,-7.30814E-2,-1.9500323E-2,-1.9870887E-2,4.9956784E-2,-2.1469511E-2,4.8884958E-2],"categories":[],"categories_nodes":[],"categories_segments":[],"categories_sizes":[],"default_left":[0,0,0,0,0,0,0,0,0,0,0,0,0,0,0,0,0,0,0],"id":37,"left_children":[1,3,5,7,9,11,-1,13,15,17,-1,-1,-1,-1,-1,-1,-1,-1,-1],"loss_changes":[4.5514574E0,5.118298E0,1.0869331E0,5.2688546E0,2.2023876E0,2.9870949E0,0E0,8.558302E-1,3.13608E0,3.7872756E0,0E0,0E0,0E0,0E0,0E0,0E0,0E0,0E0,0E0],"parents":[2147483647,0,0,1,1,2,2,3,3,4,4,5,5,7,7,8,8,9,9],"right_children":[2,4,6,8,10,12,-1,14,16,18,-1,-1,-1,-1,-1,-1,-1,-1,-1],"split_conditions":[4.3848255E-1,3.2530016E-1,1.5278918E-1,3.3675143E-1,9.580108E-1,2.7076882E-1,7.984214E-2,3.1894228E-1,9.580108E-1,7.00192E-1,7.260663E-2,-2.9460268E-2,6.827277E-2,-7.30814E-2,-1.9500323E-2,-1.9870887E-2,4.9956784E-2,-2.1469511E-2,4.8884958E-2],"split_indices":[1,2,0,0,3,2,0,1,3,2,0,0,0,0,0,0,0,0,0],"split_type":[0,0,0,0,0,0,0,0,0,0,0,0,0,0,0,0,0,0,0],"sum_hessian":[5.722588E1,4.8011806E1,9.214072E0,2.7667637E1,2.034417E1,5.116081E0,4.097991E0,1.347305E1,1.4194587E1,1.6833202E1,3.5109682E0,2.8524394E0,2.263642E0,8.8226185E0,4.6504316E0,8.900633E0,5.2939544E0,9.540449E0,7.2927527E0],"tree_param":{"num_deleted":"0","num_feature":"6","num_nodes":"19","size_leaf_vector":"1"}},{"base_weights":[4.996629E-2,-3.227976E-1,2.8261083E-1,-5.787392E-1,3.0452507E-2,-7.677202E-2,4.6804348E-1,-5.9713636E-2,5.037659E-3,-3.070231E-2,2.6559496E-1,-5.4241186E-1,2.9377565E-1,2.5005227E-1,7.714117E-2,-2.0154088E-3,5.3551476E-2,-6.388379E-2,-7.4491296E-3,-0E0,3.8210277E-2,3.1985908E-3,7.2403885E-2],"categories":[],"categories_nodes":[],"categories_segments":[],"categories_sizes":[],"default_left":[0,0,0,0,0,0,0,0,0,0,0,0,0,0,0,0,0,0,0,0,0,0,0],"id":38,"left_children":[1,3,5,7,9,11,13,-1,-1,-1,15,17,19,21,-1,-1,-1,-1,-1,-1,-1,-1,-1],"loss_changes":[5.2624617E0,2.1847143E0,2.5844412E0,1.6162248E0,1.2159609E0,2.6500573E0,2.2272367E0,0E0,0E0,0E0,1.038454E0,5.7897377E-1,4.1934204E-1,2.5444393E0,0E0,0E0,0E0,0E0,0E0,0E0,0E0,0E0,0E0],"parents":[2147483647,0,0,1,1,2,2,3,3,4,4,5,5,6,6,10,10,11,11,12,12,13,13],"right_children":[2,4,6,8,10,12,14,-1,-1,-1,16,18,20,22,-1,-1,-1,-1,-1,-1,-1,-1,-1],"split_conditions":[9.722215E-2,3.2530016E-1,1.5278918E-1,1E0,1.5278918E-1,2.7076882E-1,9.580108E-1,-5.9713636E-2,5.037659E-3,-3.070231E-2,5.832908E-1,3.1894228E-1,2.090457E-1,4.3848255E-1,7.714117E-2,-2.0154088E-3,5.3551476E-2,-6.388379E-2,-7.4491296E-3,-0E0,3.8210277E-2,3.1985908E-3,7.2403885E-2],"split_indices":[1,2,0,0,0,2,3,0,0,0,2,1,1,1,0,0,0,0,0,0,0,0,0],"split_type":[0,0,0,0,0,0,0,0,0,0,0,0,0,0,0,0,0,0,0,0,0,0,0],"sum_hessian":[5.765075E1,2.176531E1,3.5885437E1,1.2229918E1,9.535394E0,1.23295355E1,2.35559E1,9.625747E0,2.604171E0,2.955495E0,6.5798984E0,5.2749944E0,7.0545416E0,1.8073542E1,5.4823594E0,4.4988837E0,2.0810146E0,2.475314E0,2.7996805E0,3.4800675E0,3.574474E0,1.5005292E1,3.0682495E0],"tree_param":{"num_deleted":"0","num_feature":"6","num_nodes":"23","size_leaf_vector":"1"}},{"base_weights":[6.5821044E-2,-1.4062358E-1,4.5297498E-1,-6.032394E-1,5.3203013E-2,-2.2007272E-2,6.0280544E-1,-6.683924E-2,-0E0,-3.2980213E-1,3.2192564E-1,-2.4160514E-2,1.5369941E-2,3.7029323E-1,7.115168E-2,-3.1997204E-2,-4.7955583E-3,-2.0273289E-2,4.0817857E-2,2.4596904E-3,5.1823605E-2],"categories":[],"categories_nodes":[],"categories_segments":[],"categories_sizes":[],"default_left":[0,0,0,0,0,0,0,0,0,0,0,0,0,0,0,0,0,0,0,0,0],"id":39,"left_children":[1,3,5,7,9,11,13,-1,-1,15,17,-1,-1,19,-1,-1,-1,-1,-1,-1,-1],"loss_changes":[4.8059673E0,3.61447E0,1.5642657E0,1.7142091E0,3.124999E0,4.754642E-1,4.521489E-1,0E0,0E0,1.5418863E-1,2.153539E0,0E0,0E0,9.9955356E-1,0E0,0E0,0E0,0E0,0E0,0E0,0E0],"parents":[2147483647,0,0,1,1,2,2,3,3,4,4,5,5,6,6,9,9,10,10,13,13],"right_children":[2,4,6,8,10,12,14,-1,-1,16,18,-1,-1,20,-1,-1,-1,-1,-1,-1,-1],"split_conditions":[3.1894228E-1,3.8533247E0,1.9160216E0,1.196051E-1,1.5278918E-1,4.3848255E-1,9.580108E-1,-6.683924E-2,-0E0,9.580108E-1,4.008902E-2,-2.4160514E-2,1.5369941E-2,3.867522E-1,7.115168E-2,-3.1997204E-2,-4.7955583E-3,-2.0273289E-2,4.0817857E-2,2.4596904E-3,5.1823605E-2],"split_indices":[1,5,5,1,0,1,3,0,0,3,1,0,0,1,0,0,0,0,0,0,0],"split_type":[0,0,0,0,0,0,0,0,0,0,0,0,0,0,0,0,0,0,0,0,0],"sum_hessian":[5.704406E1,3.7659504E1,1.9384554E1,1.0336465E1,2.732304E1,4.795246E0,1.4589308E1,7.126203E0,3.210262E0,1.0971911E1,1.6351128E1,2.0136395E0,2.781607E0,1.0145359E1,4.4439487E0,7.8398E0,3.132112E0,3.7729855E0,1.2578142E1,5.4740033E0,4.6713557E0],"tree_param":{"num_deleted":"0","num_feature":"6","num_nodes":"21","size_leaf_vector":"1"}},{"base_weights":[4.5186162E-2,-2.623481E-1,3.3998713E-1,-7.0918256E-1,-4.0285055E-2,1.0510073E-1,7.0262216E-2,-6.849791E-2,-2.2113368E-2,-5.454719E-1,2.429912E-1,-2.2362965E-1,5.353796E-1,-6.2275704E-2,-1.916821E-2,-3.1191034E-2,4.255189E-2,-4.1429568E-2,5.3821597E-2,-3.644102E-3,7.236453E-2],"categories":[],"categories_nodes":[],"categories_segments":[],"categories_sizes":[],"default_left":[0,0,0,0,0,0,0,0,0,0,0,0,0,0,0,0,0,0,0,0,0],"id":40,"left_children":[1,3,5,7,9,11,-1,-1,-1,13,15,17,19,-1,-1,-1,-1,-1,-1,-1,-1],"loss_changes":[5.449685E0,2.7931023E0,3.6464233E0,1.362071E-1,3.2825403E0,3.4945114E0,0E0,0E0,0E0,2.066648E-1,2.9914916E0,4.2226887E0,2.4271579E0,0E0,0E0,0E0,0E0,0E0,0E0,0E0,0E0],"parents":[2147483647,0,0,1,1,2,2,3,3,4,4,5,5,9,9,10,10,11,11,12,12],"right_children":[2,4,6,8,10,12,-1,-1,-1,14,16,18,20,-1,-1,-1,-1,-1,-1,-1,-1],"split_conditions":[1.6494305E-1,1.1912765E-1,9.580108E-1,1E0,1.5278918E-1,3.154153E-1,7.0262216E-2,-6.849791E-2,-2.2113368E-2,3.2530016E-1,4.008902E-2,1E0,3.1894228E-1,-6.2275704E-2,-1.916821E-2,-3.1191034E-2,4.255189E-2,-4.1429568E-2,5.3821597E-2,-3.644102E-3,7.236453E-2],"split_indices":[1,2,3,0,0,2,0,0,0,2,1,0,1,0,0,0,0,0,0,0,0],"split_type":[0,0,0,0,0,0,0,0,0,0,0,0,0,0,0,0,0,0,0,0,0],"sum_hessian":[5.7048943E1,2.7836264E1,2.9212677E1,7.999321E0,1.9836943E1,2.1715593E1,7.4970846E0,4.702673E0,3.296648E0,6.7549653E0,1.3081977E1,1.2587111E1,9.128481E0,2.3332763E0,4.421689E0,3.8273606E0,9.254617E0,1.0037359E1,2.5497522E0,3.9526715E0,5.1758094E0],"tree_param":{"num_deleted":"0","num_feature":"6","num_nodes":"21","size_leaf_vector":"1"}},{"base_weights":[-1.1659018E-2,-2.7783084E-1,2.659827E-1,-5.277037E-1,5.4156356E-2,5.2510504E-2,7.1851814E-1,-5.748349E-2,-2.4456641E-1,5.777998E-2,-1.5564594E-1,-3.0695772E-1,5.6813943E-1,1.9670933E-2,7.070785E-2,-3.4994457E-2,3.0143298E-3,-4.2447522E-2,2.3063997E-2,-4.248545E-2,7.539726E-3,-4.787616E-4,6.942115E-2],"categories":[],"categories_nodes":[],"categories_segments":[],"categories_sizes":[],"default_left":[0,0,0,0,0,0,0,0,0,0,0,0,0,0,0,0,0,0,0,0,0,0,0],"id":41,"left_children":[1,3,5,7,9,11,13,-1,15,-1,17,19,21,-1,-1,-1,-1,-1,-1,-1,-1,-1,-1],"loss_changes":[4.1400585E0,2.474788E0,2.4997902E0,5.431347E-1,2.1221573E0,4.048764E0,2.2283173E-1,0E0,5.662639E-1,0E0,2.1544404E0,1.2710763E0,1.6379719E0,0E0,0E0,0E0,0E0,0E0,0E0,0E0,0E0,0E0,0E0],"parents":[2147483647,0,0,1,1,2,2,3,3,4,4,5,5,6,6,8,8,10,10,11,11,12,12],"right_children":[2,4,6,8,10,12,14,-1,16,-1,18,20,22,-1,-1,-1,-1,-1,-1,-1,-1,-1,-1],"split_conditions":[1.6494305E-1,3.2530016E-1,9.580108E-1,8.998534E-2,4.0341502E-1,3.154153E-1,5.178125E1,-5.748349E-2,1.1912765E-1,5.777998E-2,7.00192E-1,4.3848255E-1,3.1894228E-1,1.9670933E-2,7.070785E-2,-3.4994457E-2,3.0143298E-3,-4.2447522E-2,2.3063997E-2,-4.248545E-2,7.539726E-3,-4.787616E-4,6.942115E-2],"split_indices":[1,2,3,1,2,2,4,0,2,0,2,1,1,0,0,0,0,0,0,0,0,0,0],"split_type":[0,0,0,0,0,0,0,0,0,0,0,0,0,0,0,0,0,0,0,0,0,0,0],"sum_hessian":[5.3006153E1,2.7245432E1,2.5760721E1,1.5212524E1,1.20329075E1,1.8791388E1,6.969332E0,7.49851E0,7.7140145E0,2.1139874E0,9.91892E0,1.1315762E1,7.4756274E0,2.9297462E0,4.039586E0,4.3031487E0,3.410866E0,5.3407297E0,4.5781903E0,7.108638E0,4.2071233E0,2.953189E0,4.5224385E0],"tree_param":{"num_deleted":"0","num_feature":"6","num_nodes":"23","size_leaf_vector":"1"}},{"base_weights":[1.38401035E-2,-1.094912E-1,5.3319263E-1,-2.6569113E-1,5.8758616E-1,1.9881895E-3,6.566285E-2,-4.8486408E-2,2.246806E-1,2.3443915E-1,7.030395E-2,4.59228E-3,5.973556E-2,-2.2087194E-2,5.4242272E-2],"categories":[],"categories_nodes":[],"categories_segments":[],"categories_sizes":[],"default_left":[0,0,0,0,0,0,0,0,0,0,0,0,0,0,0],"id":42,"left_children":[1,3,5,7,9,-1,-1,-1,11,13,-1,-1,-1,-1,-1],"loss_changes":[3.6636949E0,5.1748543E0,1.492728E0,6.662209E0,4.7542906E-1,0E0,0E0,0E0,1.3164079E0,1.7109308E0,0E0,0E0,0E0,0E0,0E0],"parents":[2147483647,0,0,1,1,2,2,3,3,4,4,8,8,9,9],"right_children":[2,4,6,8,10,-1,-1,-1,12,14,-1,-1,-1,-1,-1],"split_conditions":[1E0,7.00192E-1,3.8244333E-2,9.580108E-1,9.516452E-1,1.9881895E-3,6.566285E-2,-4.8486408E-2,2.9884174E-1,1.5278918E-1,7.030395E-2,4.59228E-3,5.973556E-2,-2.2087194E-2,5.4242272E-2],"split_indices":[0,2,2,3,2,0,0,0,2,0,0,0,0,0,0],"split_type":[0,0,0,0,0,0,0,0,0,0,0,0,0,0,0],"sum_hessian":[5.3669727E1,4.4171486E1,9.49824E0,3.696105E1,7.210439E0,4.146448E0,5.3517923E0,2.1728388E1,1.523266E1,4.637551E0,2.5728884E0,1.2941975E1,2.2906864E0,2.314615E0,2.3229358E0],"tree_param":{"num_deleted":"0","num_feature":"6","num_nodes":"15","size_leaf_vector":"1"}},{"base_weights":[9.0346284E-2,-1.3585678E-1,5.316678E-1,-3.0288666E-1,5.0287163E-1,3.71107E-1,7.518804E-2,-5.4154205E-1,2.2610545E-2,1.1197339E-2,5.8059976E-2,-1.7072925E-2,5.576024E-1,-2.11205E-2,-6.398647E-2,-1.6577423E-2,5.8650244E-2,2.2845762E-2,6.5456204E-2],"categories":[],"categories_nodes":[],"categories_segments":[],"categories_sizes":[],"default_left":[0,0,0,0,0,0,0,0,0,0,0,0,0,0,0,0,0,0,0],"id":43,"left_children":[1,3,5,7,9,11,-1,13,15,-1,-1,-1,17,-1,-1,-1,-1,-1,-1],"loss_changes":[5.2481894E0,3.9235535E0,5.1020765E-1,2.2969344E0,3.8048446E-1,1.8923848E0,0E0,7.7942467E-1,2.4667685E0,0E0,0E0,0E0,4.0577173E-1,0E0,0E0,0E0,0E0,0E0,0E0],"parents":[2147483647,0,0,1,1,2,2,3,3,4,4,5,5,7,7,8,8,12,12],"right_children":[2,4,6,8,10,12,-1,14,16,-1,-1,-1,18,-1,-1,-1,-1,-1,-1],"split_conditions":[3.1926692E-1,7.00192E-1,1E0,9.580108E-1,5.178125E1,3.8244333E-2,7.518804E-2,6.15625E1,2.9884174E-1,1.1197339E-2,5.8059976E-2,-1.7072925E-2,3.154153E-1,-2.11205E-2,-6.398647E-2,-1.6577423E-2,5.8650244E-2,2.2845762E-2,6.5456204E-2],"split_indices":[1,2,1,3,4,2,0,4,2,0,0,0,2,0,0,0,0,0,0],"split_type":[0,0,0,0,0,0,0,0,0,0,0,0,0,0,0,0,0,0,0],"sum_hessian":[4.9590355E1,3.332235E1,1.6268003E1,2.7164095E1,6.1582565E0,1.3906537E1,2.361467E0,1.52755995E1,1.18884945E1,3.442927E0,2.7153294E0,3.181695E0,1.0724842E1,9.012202E0,6.263398E0,9.679346E0,2.209148E0,6.973227E0,3.7516153E0],"tree_param":{"num_deleted":"0","num_feature":"6","num_nodes":"19","size_leaf_vector":"1"}},{"base_weights":[2.2246249E-2,-2.763602E-1,2.7075085E-1,-5.8265183E-2,-6.6860795E-2,-5.48722E-2,4.9260315E-1,-4.6828054E-2,1.5031344E-1,-4.6386965E-2,1.2634301E-1,2.7942693E-1,7.227078E-2,-2.8126538E-2,3.255885E-2,-1.0439615E-2,3.937417E-2,4.2497754E-2,-2.6891552E-2],"categories":[],"categories_nodes":[],"categories_segments":[],"categories_sizes":[],"default_left":[0,0,0,0,0,0,0,0,0,0,0,0,0,0,0,0,0,0,0],"id":44,"left_children":[1,3,5,-1,7,9,11,-1,13,-1,15,17,-1,-1,-1,-1,-1,-1,-1],"loss_changes":[4.135391E0,2.2324262E0,2.2902024E0,0E0,2.3164763E0,1.4433949E0,1.1226249E0,0E0,2.0827262E0,0E0,1.1807352E0,2.5360513E0,0E0,0E0,0E0,0E0,0E0,0E0,0E0],"parents":[2147483647,0,0,1,1,2,2,4,4,5,5,6,6,8,8,10,10,11,11],"right_children":[2,4,6,-1,8,10,12,-1,14,-1,16,18,-1,-1,-1,-1,-1,-1,-1],"split_conditions":[1.196051E-1,3.8533247E0,1.5278918E-1,-5.8265183E-2,1.5278918E-1,3.163218E0,9.580108E-1,-4.6828054E-2,4.008902E-2,-4.6386965E-2,3.1894228E-1,8.265625E1,7.227078E-2,-2.8126538E-2,3.255885E-2,-1.0439615E-2,3.937417E-2,4.2497754E-2,-2.6891552E-2],"split_indices":[1,5,0,0,0,5,3,0,1,0,1,4,0,0,0,0,0,0,0],"split_type":[0,0,0,0,0,0,0,0,0,0,0,0,0,0,0,0,0,0,0],"sum_hessian":[5.2724255E1,2.3688858E1,2.9035395E1,6.1751513E0,1.7513706E1,1.2040797E1,1.6994598E1,4.555423E0,1.2958284E1,2.3847213E0,9.6560755E0,1.30079E1,3.9866984E0,4.0651197E0,8.893165E0,6.07949E0,3.5765853E0,9.492891E0,3.5150084E0],"tree_param":{"num_deleted":"0","num_feature":"6","num_nodes":"19","size_leaf_vector":"1"}},{"base_weights":[-1.0959088E-2,-3.7060788E-1,1.6584022E-1,-6.3041165E-2,-3.4843687E-2,-1.4800692E-1,4.7828576E-1,-3.7889293E-1,4.238195E-2,-5.938516E-2,1.4058094E-1,5.7090532E-2,1.8082073E-1,-1.6082326E-3,-3.8417373E-2,-2.9893773E-2,3.192612E-2,-2.0625664E-2,4.7629513E-2],"categories":[],"categories_nodes":[],"categories_segments":[],"categories_sizes":[],"default_left":[0,0,0,0,0,0,0,0,0,0,0,0,0,0,0,0,0,0,0],"id":45,"left_children":[1,3,5,-1,7,9,11,13,-1,-1,15,-1,17,-1,-1,-1,-1,-1,-1],"loss_changes":[3.5755515E0,2.4831488E0,3.8028717E0,0E0,2.6189423E0,3.5825408E0,1.0636988E0,2.4256968E-1,0E0,0E0,2.134863E0,0E0,2.208521E0,0E0,0E0,0E0,0E0,0E0,0E0],"parents":[2147483647,0,0,1,1,2,2,4,4,5,5,6,6,7,7,10,10,12,12],"right_children":[2,4,6,-1,8,10,12,14,-1,-1,16,-1,18,-1,-1,-1,-1,-1,-1],"split_conditions":[1.5278918E-1,2.7076882E-1,1.196051E-1,-6.3041165E-2,2.090457E-1,1.1912765E-1,1.80832E-1,4.0341502E-1,4.238195E-2,-5.938516E-2,4.008902E-2,5.7090532E-2,3.154153E-1,-1.6082326E-3,-3.8417373E-2,-2.9893773E-2,3.192612E-2,-2.0625664E-2,4.7629513E-2],"split_indices":[0,2,1,0,1,2,2,2,0,0,1,0,2,0,0,0,0,0,0],"split_type":[0,0,0,0,0,0,0,0,0,0,0,0,0,0,0,0,0,0,0],"sum_hessian":[5.2960114E1,1.7098763E1,3.586135E1,6.5891776E0,1.0509584E1,1.8124718E1,1.7736635E1,6.9469748E0,3.5626097E0,5.2667427E0,1.2857974E1,8.542953E0,9.193683E0,2.1430275E0,4.8039474E0,3.9481988E0,8.909776E0,4.6253667E0,4.5683155E0],"tree_param":{"num_deleted":"0","num_feature":"6","num_nodes":"19","size_leaf_vector":"1"}},{"base_weights":[-4.6874993E-3,-2.6009378E-1,3.013929E-1,-3.876808E-1,2.2059138E-1,1.0993753E-1,6.57918E-1,-5.999682E-1,-1.1599419E-1,-2.1900143E-2,5.6483846E-2,-1.6108736E-1,5.0178176E-1,1.5917728E-2,6.389836E-2,-6.266277E-2,-1.4274719E-2,-4.2708226E-2,5.566782E-3,-4.015957E-2,2.9784834E-2,9.0393005E-4,6.919241E-2],"categories":[],"categories_nodes":[],"categories_segments":[],"categories_sizes":[],"default_left":[0,0,0,0,0,0,0,0,0,0,0,0,0,0,0,0,0,0,0,0,0,0,0],"id":46,"left_children":[1,3,5,7,9,11,13,15,17,-1,-1,19,21,-1,-1,-1,-1,-1,-1,-1,-1,-1,-1],"loss_changes":[4.225258E0,1.9637337E0,1.4830992E0,1.2165082E0,2.0158963E0,2.0547798E0,1.8247628E-1,6.977582E-1,1.0835912E0,0E0,0E0,2.3949246E0,1.2919835E0,0E0,0E0,0E0,0E0,0E0,0E0,0E0,0E0,0E0,0E0],"parents":[2147483647,0,0,1,1,2,2,3,3,4,4,5,5,6,6,7,7,8,8,11,11,12,12],"right_children":[2,4,6,8,10,12,14,16,18,-1,-1,20,22,-1,-1,-1,-1,-1,-1,-1,-1,-1,-1],"split_conditions":[1.6947219E-1,7.00192E-1,3.2530016E-1,8.998534E-2,5.178125E1,4.3848255E-1,3.1894228E-1,3.2530016E-1,5.178125E1,-2.1900143E-2,5.6483846E-2,9.580108E-1,5.178125E1,1.5917728E-2,6.389836E-2,-6.266277E-2,-1.4274719E-2,-4.2708226E-2,5.566782E-3,-4.015957E-2,2.9784834E-2,9.0393005E-4,6.919241E-2],"split_indices":[1,2,2,1,4,1,1,2,4,0,0,3,4,0,0,0,0,0,0,0,0,0,0],"split_type":[0,0,0,0,0,0,0,0,0,0,0,0,0,0,0,0,0,0,0,0,0,0,0],"sum_hessian":[5.1097504E1,2.8155478E1,2.2942026E1,2.2643524E1,5.511952E0,1.6385805E1,6.556221E0,1.1487227E1,1.1156297E1,2.9530227E0,2.5589292E0,1.0057519E1,6.3282866E0,2.5558083E0,4.0004125E0,6.9432564E0,4.5439715E0,2.7309587E0,8.425339E0,6.3041654E0,3.7533538E0,3.4671528E0,2.8611336E0],"tree_param":{"num_deleted":"0","num_feature":"6","num_nodes":"23","size_leaf_vector":"1"}},{"base_weights":[4.8000176E-2,-5.716734E-2,6.2372667E-1,-1.3865148E-1,6.796501E-2,2.142513E-2,6.581872E-2,-7.2509754E-1,7.915542E-2,-6.947139E-2,-2.5060482E-2,-1.1978538E-2,3.921377E-2],"categories":[],"categories_nodes":[],"categories_segments":[],"categories_sizes":[],"default_left":[0,0,0,0,0,0,0,0,0,0,0,0,0],"id":47,"left_children":[1,3,5,7,-1,-1,-1,9,11,-1,-1,-1,-1],"loss_changes":[3.1404433E0,3.322894E0,1.2728167E-1,5.4318104E0,0E0,0E0,0E0,1.506362E-1,3.0959036E0,0E0,0E0,0E0,0E0],"parents":[2147483647,0,0,1,1,2,2,3,3,7,7,8,8],"right_children":[2,4,6,8,-1,-1,-1,10,12,-1,-1,-1,-1],"split_conditions":[4.3848255E-1,9.516452E-1,5.178125E1,5.178125E1,6.796501E-2,2.142513E-2,6.581872E-2,9.580108E-1,9.580108E-1,-6.947139E-2,-2.5060482E-2,-1.1978538E-2,3.921377E-2],"split_indices":[1,2,4,4,0,0,0,3,3,0,0,0,0],"split_type":[0,0,0,0,0,0,0,0,0,0,0,0,0],"sum_hessian":[4.8548164E1,4.2045166E1,6.502996E0,3.9845345E1,2.199823E0,3.774196E0,2.7288E0,9.96907E0,2.9876272E1,5.9820447E0,3.987026E0,1.9646038E1,1.0230236E1],"tree_param":{"num_deleted":"0","num_feature":"6","num_nodes":"13","size_leaf_vector":"1"}},{"base_weights":[3.976663E-2,-9.2500575E-2,5.755067E-2,-5.7903785E-1,1.0283461E-1,-6.1473917E-2,1.449147E-2,-3.6837876E-2,4.831222E-2,-2.6978921E-2,3.6489137E-2],"categories":[],"categories_nodes":[],"categories_segments":[],"categories_sizes":[],"default_left":[0,0,0,0,0,0,0,0,0,0,0],"id":48,"left_children":[1,3,-1,5,7,-1,-1,9,-1,-1,-1],"loss_changes":[4.569161E0,4.151504E0,0E0,2.0633478E0,2.2783766E0,0E0,0E0,4.0259814E0,0E0,0E0,0E0],"parents":[2147483647,0,0,1,1,3,3,4,4,7,7],"right_children":[2,4,-1,6,8,-1,-1,10,-1,-1,-1],"split_conditions":[4.3848255E-1,1.5278918E-1,5.755067E-2,8.339656E-1,4.124531E-1,-6.1473917E-2,1.449147E-2,9.580108E-1,4.831222E-2,-2.6978921E-2,3.6489137E-2],"split_indices":[1,0,0,2,2,0,0,3,0,0,0],"split_type":[0,0,0,0,0,0,0,0,0,0,0],"sum_hessian":[4.7522232E1,4.074176E1,6.780475E0,1.0973819E1,2.976794E1,8.87744E0,2.0963786E0,2.420966E1,5.5582814E0,1.54632435E1,8.746415E0],"tree_param":{"num_deleted":"0","num_feature":"6","num_nodes":"11","size_leaf_vector":"1"}},{"base_weights":[2.0692611E-2,-3.4328586E-1,2.4723092E-1,-5.8180106E-1,-2.6505869E-2,1.0708917E-1,5.409778E-2,-6.2484384E-2,2.208466E-3,-2.0445248E-2,1.1622296E-1,-1.0077843E-1,5.454945E-1,-1.3235954E-2,3.0143322E-2,-2.5669167E-2,5.337659E-2,1.2345915E-2,6.3650005E-2],"categories":[],"categories_nodes":[],"categories_segments":[],"categories_sizes":[],"default_left":[0,0,0,0,0,0,0,0,0,0,0,0,0,0,0,0,0,0,0],"id":49,"left_children":[1,3,5,7,9,11,-1,-1,-1,-1,13,15,17,-1,-1,-1,-1,-1,-1],"loss_changes":[4.2826605E0,1.4148126E0,1.747422E0,1.4512005E0,3.9431447E-1,2.5155146E0,0E0,0E0,0E0,0E0,6.350667E-1,3.479604E0,5.837171E-1,0E0,0E0,0E0,0E0,0E0,0E0],"parents":[2147483647,0,0,1,1,2,2,3,3,4,4,5,5,10,10,11,11,12,12],"right_children":[2,4,6,8,10,12,-1,-1,-1,-1,14,16,18,-1,-1,-1,-1,-1,-1],"split_conditions":[9.722215E-2,3.2530016E-1,1E0,1E0,1.5278918E-1,9.580108E-1,5.409778E-2,-6.2484384E-2,2.208466E-3,-2.0445248E-2,4.124531E-1,7.00192E-1,3.1894228E-1,-1.3235954E-2,3.0143322E-2,-2.5669167E-2,5.337659E-2,1.2345915E-2,6.3650005E-2],"split_indices":[1,2,0,0,0,3,0,0,0,0,2,2,1,0,0,0,0,0,0],"split_type":[0,0,0,0,0,0,0,0,0,0,0,0,0,0,0,0,0,0,0],"sum_hessian":[4.9011875E1,1.833639E1,3.0675486E1,9.564407E0,8.771981E0,2.4710632E1,5.964853E0,7.0130086E0,2.5513992E0,3.181269E0,5.590712E0,1.739159E1,7.319043E0,2.7652698E0,2.8254423E0,1.4297719E1,3.09387E0,3.9566405E0,3.3624027E0],"tree_param":{"num_deleted":"0","num_feature":"6","num_nodes":"19","size_leaf_vector":"1"}},{"base_weights":[2.7234094E-2,-3.6558084E-2,6.564221E-2,-3.1880832E-1,1.885035E-1,-5.504668E-1,6.933971E-2,3.921635E-2,6.036619E-2,-5.7271127E-2,-4.297947E-3,-2.057305E-2,5.64149E-2,-1.2411081E-2,4.1629307E-2],"categories":[],"categories_nodes":[],"categories_segments":[],"categories_sizes":[],"default_left":[0,0,0,0,0,0,0,0,0,0,0,0,0,0,0],"id":50,"left_children":[1,3,-1,5,7,9,11,13,-1,-1,-1,-1,-1,-1,-1],"loss_changes":[2.5207071E0,2.9722662E0,0E0,1.9749002E0,2.0627904E0,9.623213E-1,2.1732135E0,2.2332976E0,0E0,0E0,0E0,0E0,0E0,0E0,0E0],"parents":[2147483647,0,0,1,1,3,3,4,4,5,5,6,6,7,7],"right_children":[2,4,-1,6,8,10,12,14,-1,-1,-1,-1,-1,-1,-1],"split_conditions":[9.516452E-1,1.196051E-1,6.564221E-2,9.580108E-1,1E0,1E0,2.9884174E-1,9.580108E-1,6.036619E-2,-5.7271127E-2,-4.297947E-3,-2.057305E-2,5.64149E-2,-1.2411081E-2,4.1629307E-2],"split_indices":[2,1,0,3,0,0,2,3,0,0,0,0,0,0,0],"split_type":[0,0,0,0,0,0,0,0,0,0,0,0,0,0,0],"sum_hessian":[4.5872223E1,4.366569E1,2.2065306E0,1.9291586E1,2.4374105E1,1.1849687E1,7.441899E0,2.0696514E1,3.6775916E0,8.241941E0,3.607746E0,5.4033713E0,2.038528E0,1.5317647E1,5.378867E0],"tree_param":{"num_deleted":"0","num_feature":"6","num_nodes":"15","size_leaf_vector":"1"}},{"base_weights":[7.1060844E-2,-4.7853205E-2,5.929294E-1,-1.865844E-1,5.281787E-1,1.2634568E-2,6.18338E-2,-3.8299352E-1,1.4727834E-1,1.6217925E-2,6.490711E-2,-4.0713597E-2,-1.3167855E-2,-2.9159054E-2,3.6081117E-2],"categories":[],"categories_nodes":[],"categories_segments":[],"categories_sizes":[],"default_left":[0,0,0,0,0,0,0,0,0,0,0,0,0,0,0],"id":51,"left_children":[1,3,5,7,9,-1,-1,11,13,-1,-1,-1,-1,-1,-1],"loss_changes":[3.0037627E0,3.2605422E0,4.2536616E-1,2.271045E0,3.7942767E-1,0E0,0E0,3.9476323E-1,2.2933495E0,0E0,0E0,0E0,0E0,0E0,0E0],"parents":[2147483647,0,0,1,1,2,2,3,3,4,4,7,7,8,8],"right_children":[2,4,6,8,10,-1,-1,12,14,-1,-1,-1,-1,-1,-1],"split_conditions":[1E0,4.3848255E-1,1.9160216E0,9.580108E-1,1.5278918E-1,1.2634568E-2,6.18338E-2,1.6947219E-1,1.5278918E-1,1.6217925E-2,6.490711E-2,-4.0713597E-2,-1.3167855E-2,-2.9159054E-2,3.6081117E-2],"split_indices":[0,1,5,3,0,0,0,1,0,0,0,0,0,0,0],"split_type":[0,0,0,0,0,0,0,0,0,0,0,0,0,0,0],"sum_hessian":[4.5338734E1,3.7878498E1,7.460235E0,3.148371E1,6.3947873E0,3.1702588E0,4.2899766E0,1.987196E1,1.161175E1,4.337022E0,2.0577652E0,1.1048259E1,8.823702E0,4.090453E0,7.5212965E0],"tree_param":{"num_deleted":"0","num_feature":"6","num_nodes":"15","size_leaf_vector":"1"}},{"base_weights":[2.2004062E-2,-1.9732277E-1,2.6257008E-1,-6.087586E-1,-4.597969E-3,7.136485E-2,5.508536E-2,-6.0906213E-2,-1.7412007E-2,-1.5206164E-1,4.948121E-2,-2.1230434E-1,4.931206E-1,-2.3457725E-2,3.5416424E-2,-3.549881E-2,2.4419874E-2,-6.3830935E-3,6.4832985E-2],"categories":[],"categories_nodes":[],"categories_segments":[],"categories_sizes":[],"default_left":[0,0,0,0,0,0,0,0,0,0,0,0,0,0,0,0,0,0,0],"id":52,"left_children":[1,3,5,7,9,11,-1,-1,-1,13,-1,15,17,-1,-1,-1,-1,-1,-1],"loss_changes":[2.582712E0,1.9492402E0,1.7598878E0,1.2664509E-1,1.838489E0,2.3406265E0,0E0,0E0,0E0,1.5803459E0,0E0,1.6158534E0,1.5948757E0,0E0,0E0,0E0,0E0,0E0,0E0],"parents":[2147483647,0,0,1,1,2,2,3,3,4,4,5,5,9,9,11,11,12,12],"right_children":[2,4,6,8,10,12,-1,-1,-1,14,-1,16,18,-1,-1,-1,-1,-1,-1],"split_conditions":[1.6494305E-1,1.1912765E-1,9.580108E-1,1E0,1E0,3.154153E-1,5.508536E-2,-6.0906213E-2,-1.7412007E-2,8.339656E-1,4.948121E-2,6.7133397E-1,3.1894228E-1,-2.3457725E-2,3.5416424E-2,-3.549881E-2,2.4419874E-2,-6.3830935E-3,6.4832985E-2],"split_indices":[1,2,3,0,0,2,0,0,0,2,0,1,1,0,0,0,0,0,0],"split_type":[0,0,0,0,0,0,0,0,0,0,0,0,0,0,0,0,0,0,0],"sum_hessian":[4.5853073E1,2.3908953E1,2.194412E1,6.4284186E0,1.7480534E1,1.6516747E1,5.427376E0,3.4190857E0,3.009333E0,1.5182039E1,2.2984943E0,1.0178559E1,6.3381863E0,1.3020442E1,2.1615973E0,7.314804E0,2.8637552E0,2.5469627E0,3.7912233E0],"tree_param":{"num_deleted":"0","num_feature":"6","num_nodes":"19","size_leaf_vector":"1"}},{"base_weights":[-0E0,-1.1161942E-1,5.374199E-1,-3.4638843E-1,1.8877375E-1,1.3485811E-2,6.6144116E-2,-5.8142304E-1,2.9838538E-1,6.365084E-2,-0E0,-7.04927E-2,-2.1262491E-2,-6.9778655E-3,5.186751E-2,-2.08518E-2,3.807699E-2],"categories":[],"categories_nodes":[],"categories_segments":[],"categories_sizes":[],"default_left":[0,0,0,0,0,0,0,0,0,0,0,0,0,0,0,0,0],"id":53,"left_children":[1,3,5,7,9,-1,-1,11,13,-1,15,-1,-1,-1,-1,-1,-1],"loss_changes":[3.0056071E0,2.992262E0,6.142349E-1,3.868933E0,2.1419897E0,0E0,0E0,1.2310109E0,1.1110947E0,0E0,2.1401732E0,0E0,0E0,0E0,0E0,0E0,0E0],"parents":[2147483647,0,0,1,1,2,2,3,3,4,4,7,7,8,8,10,10],"right_children":[2,4,6,8,10,-1,-1,12,14,-1,16,-1,-1,-1,-1,-1,-1],"split_conditions":[4.3848255E-1,3.2530016E-1,1.5278918E-1,1E0,4.0341502E-1,1.3485811E-2,6.6144116E-2,9.580108E-1,3.8244333E-2,6.365084E-2,1.6947219E-1,-7.04927E-2,-2.1262491E-2,-6.9778655E-3,5.186751E-2,-2.08518E-2,3.807699E-2],"split_indices":[1,2,0,0,2,0,0,3,2,0,1,0,0,0,0,0,0],"split_type":[0,0,0,0,0,0,0,0,0,0,0,0,0,0,0,0,0],"sum_hessian":[4.646113E1,3.9315285E1,7.1458426E0,2.2126097E1,1.718919E1,4.337103E0,2.8087397E0,1.6436935E1,5.689162E0,2.9357505E0,1.4253438E1,6.8899326E0,9.547003E0,3.1065462E0,2.5826156E0,9.65E0,4.6034393E0],"tree_param":{"num_deleted":"0","num_feature":"6","num_nodes":"17","size_leaf_vector":"1"}},{"base_weights":[4.8853315E-2,-1.2286616E-1,3.1531286E-1,-2.946235E-1,3.5991058E-1,1.5031755E-1,6.385338E-2,-5.7803E-1,2.1879573E-3,-8.1357756E-4,5.4970883E-2,-1.4431816E-1,4.888691E-1,-5.6413293E-2,-4.761532E-3,-1.6310256E-2,1.2192513E-2,-3.3318974E-2,9.959621E-5,1.204728E-2,5.7002187E-2],"categories":[],"categories_nodes":[],"categories_segments":[],"categories_sizes":[],"default_left":[0,0,0,0,0,0,0,0,0,0,0,0,0,0,0,0,0,0,0,0,0],"id":54,"left_children":[1,3,5,7,9,11,-1,13,15,-1,-1,17,19,-1,-1,-1,-1,-1,-1,-1,-1],"loss_changes":[2.2426968E0,2.6093626E0,1.2543867E0,1.9800243E0,1.0829856E0,1.76704E0,0E0,6.422374E-1,4.2759275E-1,0E0,0E0,4.2738467E-1,3.647015E-1,0E0,0E0,0E0,0E0,0E0,0E0,0E0,0E0],"parents":[2147483647,0,0,1,1,2,2,3,3,4,4,5,5,7,7,8,8,11,11,12,12],"right_children":[2,4,6,8,10,12,-1,14,16,-1,-1,18,20,-1,-1,-1,-1,-1,-1,-1,-1],"split_conditions":[3.2530016E-1,1E0,9.580108E-1,9.580108E-1,3.8244333E-2,7.00192E-1,6.385338E-2,2.7076882E-1,1.5278918E-1,-8.1357756E-4,5.4970883E-2,1.5278918E-1,1.5278918E-1,-5.6413293E-2,-4.761532E-3,-1.6310256E-2,1.2192513E-2,-3.3318974E-2,9.959621E-5,1.204728E-2,5.7002187E-2],"split_indices":[2,0,3,3,2,2,0,2,0,0,0,0,0,0,0,0,0,0,0,0,0],"split_type":[0,0,0,0,0,0,0,0,0,0,0,0,0,0,0,0,0,0,0,0,0],"sum_hessian":[4.5823334E1,2.812881E1,1.7694525E1,2.1331457E1,6.7973537E0,1.480843E1,2.886094E0,1.0357475E1,1.0973983E1,3.7284234E0,3.0689304E0,8.219949E0,6.588481E0,7.729425E0,2.6280499E0,4.1203156E0,6.8536673E0,2.1308758E0,6.089073E0,3.7992594E0,2.7892218E0],"tree_param":{"num_deleted":"0","num_feature":"6","num_nodes":"21","size_leaf_vector":"1"}},{"base_weights":[5.3270824E-2,-2.0858988E-1,2.6739305E-1,-5.0723698E-2,-2.390421E-2,-7.1510434E-2,5.1729786E-1,-3.284826E-2,1.501048E-1,-3.635984E-2,7.381233E-2,5.5290073E-2,2.0686748E-2,-2.5262708E-2,3.1112263E-2,-6.2660244E-3,2.5030715E-2],"categories":[],"categories_nodes":[],"categories_segments":[],"categories_sizes":[],"default_left":[0,0,0,0,0,0,0,0,0,0,0,0,0,0,0,0,0],"id":55,"left_children":[1,3,5,-1,7,9,11,-1,13,-1,15,-1,-1,-1,-1,-1,-1],"loss_changes":[2.662954E0,1.5834913E0,2.3120208E0,0E0,1.2328576E0,7.692254E-1,3.288188E-1,0E0,1.5645508E0,0E0,4.2280707E-1,0E0,0E0,0E0,0E0,0E0,0E0],"parents":[2147483647,0,0,1,1,2,2,4,4,5,5,6,6,8,8,10,10],"right_children":[2,4,6,-1,8,10,12,-1,14,-1,16,-1,-1,-1,-1,-1,-1],"split_conditions":[1.196051E-1,3.8533247E0,1.5278918E-1,-5.0723698E-2,1.5278918E-1,3.163218E0,5E0,-3.284826E-2,4.008902E-2,-3.635984E-2,3.1894228E-1,5.5290073E-2,2.0686748E-2,-2.5262708E-2,3.1112263E-2,-6.2660244E-3,2.5030715E-2],"split_indices":[1,5,0,0,0,5,5,0,1,0,1,0,0,0,0,0,0],"split_type":[0,0,0,0,0,0,0,0,0,0,0,0,0,0,0,0,0],"sum_hessian":[4.4396233E1,1.977911E1,2.4617125E1,4.7183723E0,1.5060737E1,1.0732745E1,1.3884378E1,4.219331E0,1.0841406E1,2.263725E0,8.46902E0,6.5738363E0,7.3105426E0,3.3680665E0,7.4733396E0,5.5362234E0,2.9327965E0],"tree_param":{"num_deleted":"0","num_feature":"6","num_nodes":"17","size_leaf_vector":"1"}},{"base_weights":[6.1470266E-2,-2.8080735E-4,6.366275E-2,-1.8461132E-1,3.216405E-1,-4.6293014E-1,1.2035791E-1,1.1923593E-1,5.964404E-2,-6.55781E-2,-1.2139401E-2,-2.2116024E-2,2.7655093E-2,-1.1969861E-2,5.758677E-2],"categories":[],"categories_nodes":[],"categories_segments":[],"categories_sizes":[],"default_left":[0,0,0,0,0,0,0,0,0,0,0,0,0,0,0],"id":56,"left_children":[1,3,-1,5,7,9,11,13,-1,-1,-1,-1,-1,-1,-1],"loss_changes":[2.0612414E0,2.5486417E0,0E0,2.4651005E0,1.1122792E0,1.3750587E0,1.4212321E0,2.2294998E0,0E0,0E0,0E0,0E0,0E0,0E0,0E0],"parents":[2147483647,0,0,1,1,3,3,4,4,5,5,6,6,7,7],"right_children":[2,4,-1,6,8,10,12,14,-1,-1,-1,-1,-1,-1,-1],"split_conditions":[9.516452E-1,3.1894228E-1,6.366275E-2,3.3675143E-1,9.580108E-1,2.9510418E-1,9.579066E-2,3.154153E-1,5.964404E-2,-6.55781E-2,-1.2139401E-2,-2.2116024E-2,2.7655093E-2,-1.1969861E-2,5.758677E-2],"split_indices":[2,1,0,0,3,2,2,2,0,0,0,0,0,0,0],"split_type":[0,0,0,0,0,0,0,0,0,0,0,0,0,0,0],"sum_hessian":[4.2195435E1,4.0179817E1,2.0156178E0,2.6154383E1,1.4025434E1,1.3439913E1,1.2714469E1,1.0953347E1,3.0720868E0,4.9694715E0,8.470441E0,4.321031E0,8.393438E0,8.2293E0,2.724048E0],"tree_param":{"num_deleted":"0","num_feature":"6","num_nodes":"15","size_leaf_vector":"1"}},{"base_weights":[7.168489E-2,-1.7829764E-1,2.8305507E-1,-5.4278366E-2,2.378231E-2,-0E0,4.5377645E-1,-2.9074762E-2,1.9993563E-1,-4.3273404E-2,4.165666E-1,5.3734533E-2,1.6564551E-1,-1.4091821E-2,2.9563159E-2,9.445427E-3,4.3389034E-2,-1.4681454E-2,4.237594E-2],"categories":[],"categories_nodes":[],"categories_segments":[],"categories_sizes":[],"default_left":[0,0,0,0,0,0,0,0,0,0,0,0,0,0,0,0,0,0,0],"id":57,"left_children":[1,3,5,-1,7,9,11,-1,13,-1,15,-1,17,-1,-1,-1,-1,-1,-1],"loss_changes":[2.4298494E0,2.2148085E0,1.1667833E0,0E0,1.2032133E0,2.808075E0,7.1173E-1,0E0,9.0383065E-1,0E0,1.05982065E-1,0E0,1.2976303E0,0E0,0E0,0E0,0E0,0E0,0E0],"parents":[2147483647,0,0,1,1,2,2,4,4,5,5,6,6,8,8,10,10,12,12],"right_children":[2,4,6,-1,8,10,12,-1,14,-1,16,-1,18,-1,-1,-1,-1,-1,-1],"split_conditions":[1.196051E-1,1.1912765E-1,1.5278918E-1,-5.4278366E-2,1.5278918E-1,2.7076882E-1,1.80832E-1,-2.9074762E-2,4.008902E-2,-4.3273404E-2,2.090457E-1,5.3734533E-2,3.154153E-1,-1.4091821E-2,2.9563159E-2,9.445427E-3,4.3389034E-2,-1.4681454E-2,4.237594E-2],"split_indices":[1,2,0,0,0,2,2,0,1,0,1,0,2,0,0,0,0,0,0],"split_type":[0,0,0,0,0,0,0,0,0,0,0,0,0,0,0,0,0,0,0],"sum_hessian":[4.2855083E1,1.9524963E1,2.3330118E1,4.743251E0,1.47817135E1,9.502404E0,1.3827714E1,3.9457645E0,1.0835949E1,3.8631687E0,5.639236E0,6.5387936E0,7.288921E0,3.1666543E0,7.6692944E0,2.76975E0,2.8694856E0,3.96003E0,3.3288908E0],"tree_param":{"num_deleted":"0","num_feature":"6","num_nodes":"19","size_leaf_vector":"1"}},{"base_weights":[2.5331182E-2,-7.003219E-2,5.052209E-1,-2.4696733E-1,1.687082E-1,1.582952E-2,5.803735E-2,-3.843154E-2,-4.986677E-2,-0E0,5.8653943E-2,-2.3411253E-2,3.37537E-2,-2.2920381E-2,2.672596E-2],"categories":[],"categories_nodes":[],"categories_segments":[],"categories_sizes":[],"default_left":[0,0,0,0,0,0,0,0,0,0,0,0,0,0,0],"id":58,"left_children":[1,3,5,7,9,-1,-1,11,-1,13,-1,-1,-1,-1,-1],"loss_changes":[2.1058831E0,1.6658152E0,2.0917892E-1,1.6671761E0,1.5643042E0,0E0,0E0,2.0768816E0,0E0,1.5267904E0,0E0,0E0,0E0,0E0,0E0],"parents":[2147483647,0,0,1,1,2,2,3,3,4,4,7,7,9,9],"right_children":[2,4,6,8,10,-1,-1,12,-1,14,-1,-1,-1,-1,-1],"split_conditions":[4.3848255E-1,3.2530016E-1,5.178125E1,2.1123147E-1,9.580108E-1,1.582952E-2,5.803735E-2,1.1912765E-1,-4.986677E-2,7.00192E-1,5.8653943E-2,-2.3411253E-2,3.37537E-2,-2.2920381E-2,2.672596E-2],"split_indices":[1,2,4,2,3,0,0,2,0,2,0,0,0,0,0],"split_type":[0,0,0,0,0,0,0,0,0,0,0,0,0,0,0],"sum_hessian":[4.2405605E1,3.6270645E1,6.134961E0,2.104268E1,1.5227963E1,3.939313E0,2.1956482E0,1.4775056E1,6.2676253E0,1.2932142E1,2.2958214E0,1.0010758E1,4.7642975E0,7.013621E0,5.9185214E0],"tree_param":{"num_deleted":"0","num_feature":"6","num_nodes":"15","size_leaf_vector":"1"}},{"base_weights":[7.419055E-2,-1.5990269E-1,2.6392028E-1,-5.1595766E-2,4.0753543E-2,1.3674355E-1,5.8554947E-2,3.8602155E-2,-1.05144486E-1,-1.6878533E-1,4.4423637E-1,-4.0030863E-2,3.0908405E-3,-4.5833763E-2,1.23751955E-2,1.6603444E-2,6.299662E-2],"categories":[],"categories_nodes":[],"categories_segments":[],"categories_sizes":[],"default_left":[0,0,0,0,0,0,0,0,0,0,0,0,0,0,0,0,0],"id":59,"left_children":[1,3,5,-1,7,9,-1,-1,11,13,15,-1,-1,-1,-1,-1,-1],"loss_changes":[2.0284529E0,2.0853636E0,1.2576336E0,0E0,1.1254888E0,2.1841512E0,0E0,0E0,8.0600595E-1,1.7222972E0,5.8312225E-1,0E0,0E0,0E0,0E0,0E0,0E0],"parents":[2147483647,0,0,1,1,2,2,4,4,5,5,8,8,9,9,10,10],"right_children":[2,4,6,-1,8,10,-1,-1,12,14,16,-1,-1,-1,-1,-1,-1],"split_conditions":[1.196051E-1,1.1912765E-1,1E0,-5.1595766E-2,2.1123147E-1,2.7076882E-1,5.8554947E-2,3.8602155E-2,3.2530016E-1,1.5278918E-1,7.00192E-1,-4.0030863E-2,3.0908405E-3,-4.5833763E-2,1.23751955E-2,1.6603444E-2,6.299662E-2],"split_indices":[1,2,0,0,2,2,0,0,2,0,2,0,0,0,0,0,0],"split_type":[0,0,0,0,0,0,0,0,0,0,0,0,0,0,0,0,0],"sum_hessian":[4.251155E1,1.8900452E1,2.3611101E1,4.70476E0,1.4195691E1,2.025817E1,3.3529305E0,2.8352237E0,1.1360467E1,1.0337811E1,9.920359E0,2.2234726E0,9.136994E0,4.2190847E0,6.1187267E0,7.4683833E0,2.4519746E0],"tree_param":{"num_deleted":"0","num_feature":"6","num_nodes":"17","size_leaf_vector":"1"}},{"base_weights":[2.4635834E-3,-3.376849E-1,2.17406E-1,-3.4761213E-2,7.953721E-3,5.448169E-2,4.6990585E-2,-9.763612E-2,4.104854E-2,-2.096334E-2,1.934473E-2],"categories":[],"categories_nodes":[],"categories_segments":[],"categories_sizes":[],"default_left":[0,0,0,0,0,0,0,0,0,0,0],"id":60,"left_children":[1,3,5,-1,-1,7,-1,9,-1,-1,-1],"loss_changes":[3.301802E0,8.337053E-1,1.572226E0,0E0,0E0,1.5986205E0,0E0,1.0484334E0,0E0,0E0,0E0],"parents":[2147483647,0,0,1,1,2,2,5,5,7,7],"right_children":[2,4,6,-1,-1,8,-1,10,-1,-1,-1],"split_conditions":[9.722215E-2,1E0,9.580108E-1,-3.4761213E-2,7.953721E-3,1E0,4.6990585E-2,4.3848255E-1,4.104854E-2,-2.096334E-2,1.934473E-2],"split_indices":[1,0,3,0,0,0,0,1,0,0,0],"split_type":[0,0,0,0,0,0,0,0,0,0,0],"sum_hessian":[4.231897E1,1.58749275E1,2.6444042E1,1.3190553E1,2.684375E0,1.9741686E1,6.7023573E0,1.5547484E1,4.1942015E0,1.09032755E1,4.6442084E0],"tree_param":{"num_deleted":"0","num_feature":"6","num_nodes":"11","size_leaf_vector":"1"}},{"base_weights":[5.636426E-2,-1.9323474E-1,2.695052E-1,-3.1227028E-1,1.4261886E-2,1.5206148E-1,5.5395707E-2,-4.7505236E-1,1.2042629E-2,-8.926559E-2,4.1141775E-1,-6.47176E-2,-9.119625E-3,-3.2768723E-2,2.658438E-2,1.3731306E-2,5.9431016E-2],"categories":[],"categories_nodes":[],"categories_segments":[],"categories_sizes":[],"default_left":[0,0,0,0,0,0,0,0,0,0,0,0,0,0,0,0,0],"id":61,"left_children":[1,3,5,7,-1,9,-1,11,-1,13,15,-1,-1,-1,-1,-1,-1],"loss_changes":[2.3148766E0,9.7947675E-1,9.220989E-1,1.3348166E0,0E0,1.3676231E0,0E0,1.2470639E0,0E0,1.7823706E0,5.380374E-1,0E0,0E0,0E0,0E0,0E0,0E0],"parents":[2147483647,0,0,1,1,2,2,3,3,5,5,7,7,9,9,10,10],"right_children":[2,4,6,8,-1,10,-1,12,-1,14,16,-1,-1,-1,-1,-1,-1],"split_conditions":[1.196051E-1,7.00192E-1,1E0,1E0,1.4261886E-2,2.7076882E-1,5.5395707E-2,9.580108E-1,1.2042629E-2,9.580108E-1,3.867522E-1,-6.47176E-2,-9.119625E-3,-3.2768723E-2,2.658438E-2,1.3731306E-2,5.9431016E-2],"split_indices":[1,2,0,0,0,2,0,3,0,3,1,0,0,0,0,0,0],"split_type":[0,0,0,0,0,0,0,0,0,0,0,0,0,0,0,0,0],"sum_hessian":[4.0401184E1,1.8457462E1,2.194372E1,1.4363564E1,4.093899E0,1.8955761E1,2.9879594E0,1.0756534E1,3.6070304E0,1.012902E1,8.826741E0,4.477649E0,6.278884E0,5.914483E0,4.2145367E0,6.6179266E0,2.2088146E0],"tree_param":{"num_deleted":"0","num_feature":"6","num_nodes":"17","size_leaf_vector":"1"}},{"base_weights":[3.2761037E-2,-1.236304E-1,3.3124614E-1,-2.6637742E-1,3.6029622E-1,1.3013725E-1,5.805108E-2,-4.651385E-1,2.9814896E-1,-0E0,5.301105E-2,-1.1842805E-1,5.507279E-2,-7.355582E-2,-1.6703026E-3,-1.3688367E-2,5.2698683E-2,-4.2747516E-2,2.1231815E-2],"categories":[],"categories_nodes":[],"categories_segments":[],"categories_sizes":[],"default_left":[0,0,0,0,0,0,0,0,0,0,0,0,0,0,0,0,0,0,0],"id":62,"left_children":[1,3,5,7,9,11,-1,13,15,-1,-1,17,-1,-1,-1,-1,-1,-1,-1],"loss_changes":[2.0246148E0,2.0810256E0,9.5726395E-1,2.7808619E0,7.669578E-1,1.8287051E0,0E0,3.4224594E0,1.3540854E0,0E0,0E0,1.7370752E0,0E0,0E0,0E0,0E0,0E0,0E0,0E0],"parents":[2147483647,0,0,1,1,2,2,3,3,4,4,5,5,7,7,8,8,11,11],"right_children":[2,4,6,8,10,12,-1,14,16,-1,-1,18,-1,-1,-1,-1,-1,-1,-1],"split_conditions":[3.1894228E-1,7.00192E-1,3.154153E-1,1E0,1.5278918E-1,9.580108E-1,5.805108E-2,9.580108E-1,3.8244333E-2,-0E0,5.301105E-2,4.3848255E-1,5.507279E-2,-7.355582E-2,-1.6703026E-3,-1.3688367E-2,5.2698683E-2,-4.2747516E-2,2.1231815E-2],"split_indices":[1,2,2,0,0,3,0,3,2,0,0,1,0,0,0,0,0,0,0],"split_type":[0,0,0,0,0,0,0,0,0,0,0,0,0,0,0,0,0,0,0],"sum_hessian":[4.011105E1,2.6677202E1,1.3433848E1,2.1280825E1,5.396378E0,1.0386211E1,3.0476377E0,1.6065598E1,5.2152267E0,3.110816E0,2.2855618E0,7.8802743E0,2.5059366E0,7.0384307E0,9.027167E0,2.488136E0,2.7270906E0,3.6247642E0,4.2555103E0],"tree_param":{"num_deleted":"0","num_feature":"6","num_nodes":"19","size_leaf_vector":"1"}},{"base_weights":[4.3233693E-2,-1.22784674E-1,3.7026408E-1,-4.397861E-1,4.6432365E-2,1.2608609E-1,5.26902E-2,-5.57081E-1,-7.5463788E-3,-6.91982E-2,4.2643446E-2,-1.5877102E-1,5.6076158E-2,-5.6842618E-2,-8.121659E-3,-3.890867E-2,1.2099559E-2,6.351284E-3,-2.5572404E-2],"categories":[],"categories_nodes":[],"categories_segments":[],"categories_sizes":[],"default_left":[0,0,0,0,0,0,0,0,0,0,0,0,0,0,0,0,0,0,0],"id":63,"left_children":[1,3,5,7,9,11,-1,13,-1,15,-1,17,-1,-1,-1,-1,-1,-1,-1],"loss_changes":[2.2223341E0,1.5149634E0,7.674209E-1,2.500534E-1,1.1546836E0,1.7778027E0,0E0,2.815783E-1,0E0,1.6411729E0,0E0,3.480479E-1,0E0,0E0,0E0,0E0,0E0,0E0,0E0],"parents":[2147483647,0,0,1,1,2,2,3,3,4,4,5,5,7,7,9,9,11,11],"right_children":[2,4,6,8,10,12,-1,14,-1,16,-1,18,-1,-1,-1,-1,-1,-1,-1],"split_conditions":[9.580108E-1,9.722215E-2,1.6494305E-1,7.00192E-1,7.00192E-1,2.9884174E-1,5.26902E-2,8.998534E-2,-7.5463788E-3,5.178125E1,4.2643446E-2,6.795654E-2,5.6076158E-2,-5.6842618E-2,-8.121659E-3,-3.890867E-2,1.2099559E-2,6.351284E-3,-2.5572404E-2],"split_indices":[3,1,1,2,2,2,0,1,0,4,0,1,0,0,0,0,0,0,0],"split_type":[0,0,0,0,0,0,0,0,0,0,0,0,0,0,0,0,0,0,0],"sum_hessian":[3.772034E1,2.543778E1,1.228256E1,8.223983E0,1.7213799E1,8.00598E0,4.276581E0,5.23735E0,2.9866326E0,1.4782344E1,2.4314547E0,5.962975E0,2.0430043E0,3.125505E0,2.1118453E0,4.642052E0,1.0140291E1,2.4598334E0,3.5031419E0],"tree_param":{"num_deleted":"0","num_feature":"6","num_nodes":"19","size_leaf_vector":"1"}},{"base_weights":[1.379377E-2,-1.8600005E-1,3.392216E-1,-3.455102E-1,3.5785738E-1,5.8335055E-2,1.7724444E-1,-5.57213E-1,2.5315228E-1,-2.8981732E-3,5.734939E-2,-4.6743188E-2,5.120874E-2,-5.4673918E-2,-2.1562831E-2,-1.145703E-2,4.8547618E-2,-4.049208E-2,3.0444983E-2],"categories":[],"categories_nodes":[],"categories_segments":[],"categories_sizes":[],"default_left":[0,0,0,0,0,0,0,0,0,0,0,0,0,0,0,0,0,0,0],"id":64,"left_children":[1,3,5,7,9,-1,11,13,15,-1,-1,17,-1,-1,-1,-1,-1,-1,-1],"loss_changes":[2.7048392E0,2.3969436E0,7.2002983E-1,2.8562937E0,1.0095296E0,0E0,1.4933771E0,2.0317554E-1,1.0594853E0,0E0,0E0,2.3198953E0,0E0,0E0,0E0,0E0,0E0,0E0,0E0],"parents":[2147483647,0,0,1,1,2,2,3,3,4,4,6,6,7,7,8,8,11,11],"right_children":[2,4,6,8,10,-1,12,14,16,-1,-1,18,-1,-1,-1,-1,-1,-1,-1],"split_conditions":[3.2530016E-1,4.3848255E-1,4.0341502E-1,1E0,1.5278918E-1,5.8335055E-2,2.090457E-1,3.3675143E-1,3.8244333E-2,-2.8981732E-3,5.734939E-2,7.00192E-1,5.120874E-2,-5.4673918E-2,-2.1562831E-2,-1.145703E-2,4.8547618E-2,-4.049208E-2,3.0444983E-2],"split_indices":[2,1,2,0,0,0,1,0,2,0,0,2,0,0,0,0,0,0,0],"split_type":[0,0,0,0,0,0,0,0,0,0,0,0,0,0,0,0,0,0,0],"sum_hessian":[3.8409805E1,2.4006552E1,1.4403253E1,1.9127499E1,4.879054E0,2.5042071E0,1.1899045E1,1.4330686E1,4.796812E0,2.8360364E0,2.0430176E0,8.781845E0,3.1172E0,8.284832E0,6.0458536E0,2.549561E0,2.247251E0,4.2113523E0,4.5704927E0],"tree_param":{"num_deleted":"0","num_feature":"6","num_nodes":"19","size_leaf_vector":"1"}},{"base_weights":[7.69919E-2,-2.657055E-1,2.590736E-1,-3.073301E-2,5.180511E-3,-2.2981476E-2,3.700343E-1,1.1405733E-1,8.519138E-1,-4.87393E-3,3.430808E-2,2.3032004E-2,8.392344E-2],"categories":[],"categories_nodes":[],"categories_segments":[],"categories_sizes":[],"default_left":[0,0,0,0,0,0,0,0,0,0,0,0,0],"id":65,"left_children":[1,3,5,-1,-1,-1,7,9,11,-1,-1,-1,-1],"loss_changes":[2.4561872E0,6.030877E-1,1.7185354E0,0E0,0E0,0E0,2.4800708E0,9.728083E-1,2.2373152E-1,0E0,0E0,0E0,0E0],"parents":[2147483647,0,0,1,1,2,2,6,6,7,7,8,8],"right_children":[2,4,6,-1,-1,-1,8,10,12,-1,-1,-1,-1],"split_conditions":[1.5278918E-1,3.1894228E-1,4.008902E-2,-3.073301E-2,5.180511E-3,-2.2981476E-2,9.580108E-1,1E0,3.3675143E-1,-4.87393E-3,3.430808E-2,2.3032004E-2,8.392344E-2],"split_indices":[0,1,1,0,0,0,3,0,0,0,0,0,0],"split_type":[0,0,0,0,0,0,0,0,0,0,0,0,0],"sum_hessian":[3.6218517E1,1.2137093E1,2.4081423E1,8.977778E0,3.1593149E0,3.5107574E0,2.0570665E1,1.4781313E1,5.7893524E0,1.0073742E1,4.707571E0,2.5866282E0,3.2027245E0],"tree_param":{"num_deleted":"0","num_feature":"6","num_nodes":"13","size_leaf_vector":"1"}},{"base_weights":[6.2822126E-2,-2.0431216E-1,2.1737126E-1,-3.44517E-2,5.508892E-2,-4.3302666E-2,4.072764E-1,1.8667294E-2,-1.3827985E-2,-4.6236075E-2,3.9061058E-1,2.4387765E-1,5.6123514E-2,4.932729E-2,6.7416686E-3,2.6187995E-3,5.703972E-2],"categories":[],"categories_nodes":[],"categories_segments":[],"categories_sizes":[],"default_left":[0,0,0,0,0,0,0,0,0,0,0,0,0,0,0,0,0],"id":66,"left_children":[1,3,5,-1,7,9,11,-1,-1,-1,13,15,-1,-1,-1,-1,-1],"loss_changes":[1.6518011E0,9.30135E-1,1.3136723E0,0E0,3.885676E-1,3.0909925E0,3.6929965E-1,0E0,0E0,0E0,3.5706878E-1,1.0941019E0,0E0,0E0,0E0,0E0,0E0],"parents":[2147483647,0,0,1,1,2,2,4,4,5,5,6,6,10,10,11,11],"right_children":[2,4,6,-1,8,10,12,-1,-1,-1,14,16,-1,-1,-1,-1,-1],"split_conditions":[9.722215E-2,3.2530016E-1,5.178125E1,-3.44517E-2,7.536327E-2,2.7076882E-1,9.580108E-1,1.8667294E-2,-1.3827985E-2,-4.6236075E-2,4.0341502E-1,4.3848255E-1,5.6123514E-2,4.932729E-2,6.7416686E-3,2.6187995E-3,5.703972E-2],"split_indices":[1,2,4,0,1,2,3,0,0,0,2,1,0,0,0,0,0],"split_type":[0,0,0,0,0,0,0,0,0,0,0,0,0,0,0,0,0],"sum_hessian":[3.6864143E1,1.3096736E1,2.3767406E1,6.671206E0,6.42553E0,1.0283338E1,1.3484069E1,3.831999E0,2.593531E0,4.4870872E0,5.7962503E0,1.0652175E1,2.8318937E0,2.2735274E0,3.5227232E0,8.599512E0,2.0526636E0],"tree_param":{"num_deleted":"0","num_feature":"6","num_nodes":"17","size_leaf_vector":"1"}},{"base_weights":[3.5509568E-2,-1.297146E-1,2.8954434E-1,-2.8811967E-1,3.0993378E-1,1.2637497E-1,5.6676015E-2,-4.376246E-1,2.9197985E-2,-4.564344E-3,5.0564475E-2,-9.081298E-2,5.3755797E-2,-6.76613E-2,-5.202289E-3,-4.4594496E-2,2.8676804E-2],"categories":[],"categories_nodes":[],"categories_segments":[],"categories_sizes":[],"default_left":[0,0,0,0,0,0,0,0,0,0,0,0,0,0,0,0,0],"id":67,"left_children":[1,3,5,7,9,11,-1,13,-1,-1,-1,15,-1,-1,-1,-1,-1],"loss_changes":[1.618585E0,1.7418411E0,8.225932E-1,1.9985434E0,9.011442E-1,1.6842818E0,0E0,2.1691008E0,0E0,0E0,0E0,2.511177E0,0E0,0E0,0E0,0E0,0E0],"parents":[2147483647,0,0,1,1,2,2,3,3,4,4,5,5,7,7,11,11],"right_children":[2,4,6,8,10,12,-1,14,-1,-1,-1,16,-1,-1,-1,-1,-1],"split_conditions":[3.154153E-1,1E0,9.580108E-1,6.7133397E-1,1.196051E-1,3.1894228E-1,5.6676015E-2,9.580108E-1,2.9197985E-2,-4.564344E-3,5.0564475E-2,7.00192E-1,5.3755797E-2,-6.76613E-2,-5.202289E-3,-4.4594496E-2,2.8676804E-2],"split_indices":[2,0,3,1,1,1,0,3,0,0,0,2,0,0,0,0,0],"split_type":[0,0,0,0,0,0,0,0,0,0,0,0,0,0,0,0,0],"sum_hessian":[3.5339794E1,2.1619139E1,1.3720655E1,1.644019E1,5.1789494E0,1.1451414E1,2.2692416E0,1.390507E1,2.5351183E0,2.8527453E0,2.326204E0,8.953946E0,2.4974682E0,5.598831E0,8.30624E0,4.3242354E0,4.6297107E0],"tree_param":{"num_deleted":"0","num_feature":"6","num_nodes":"17","size_leaf_vector":"1"}},{"base_weights":[4.746474E-2,-1.18095905E-1,2.2778937E-1,-3.4023937E-2,7.286113E-3,-0E0,3.8522642E-2,-2.4701033E-2,2.0547971E-1,-3.7991695E-2,2.7167308E-1,-2.2255108E-2,3.443247E-2,3.7063554E-2,-1.0604909E-2],"categories":[],"categories_nodes":[],"categories_segments":[],"categories_sizes":[],"default_left":[0,0,0,0,0,0,0,0,0,0,0,0,0,0,0],"id":68,"left_children":[1,3,5,-1,7,9,-1,-1,11,-1,13,-1,-1,-1,-1],"loss_changes":[1.200842E0,8.465582E-1,1.1588781E0,0E0,1.086764E0,1.6881478E0,0E0,0E0,1.3834207E0,0E0,7.521009E-1,0E0,0E0,0E0,0E0],"parents":[2147483647,0,0,1,1,2,2,4,4,5,5,8,8,10,10],"right_children":[2,4,6,-1,8,10,-1,-1,12,-1,14,-1,-1,-1,-1],"split_conditions":[1.6494305E-1,1.1912765E-1,2.7076882E-1,-3.4023937E-2,1.5278918E-1,1.5278918E-1,3.8522642E-2,-2.4701033E-2,4.008902E-2,-3.7991695E-2,1.80832E-1,-2.2255108E-2,3.443247E-2,3.7063554E-2,-1.0604909E-2],"split_indices":[1,2,2,0,0,0,0,0,1,0,2,0,0,0,0],"split_type":[0,0,0,0,0,0,0,0,0,0,0,0,0,0,0],"sum_hessian":[3.7003902E1,1.9272455E1,1.773145E1,4.7771926E0,1.4495263E1,9.930022E0,7.8014264E0,5.069619E0,9.425643E0,3.3367424E0,6.59328E0,2.7380674E0,6.687576E0,4.492095E0,2.1011848E0],"tree_param":{"num_deleted":"0","num_feature":"6","num_nodes":"15","size_leaf_vector":"1"}},{"base_weights":[5.7498734E-3,-8.976457E-2,3.44607E-2,-1.9974886E-1,3.3764547E-1,-5.1461503E-2,-7.447361E-2,-3.9028923E-3,5.148268E-2,-1.944059E-2,1.5824866E-2],"categories":[],"categories_nodes":[],"categories_segments":[],"categories_sizes":[],"default_left":[0,0,0,0,0,0,0,0,0,0,0],"id":69,"left_children":[1,3,-1,5,7,-1,9,-1,-1,-1,-1],"loss_changes":[1.6304272E0,1.5912025E0,0E0,1.3327531E0,9.243948E-1,0E0,